{"weights": [[[2.3647476940277268, -0.20917528564252263, 1.7223778553519207, 0.5368251819206222, 0.6592301988980541, -0.6076918163052041, -0.772798542225396, 2.472848535495556, 0.21943655426357328, 0.7642672168013648, -0.2229197358812738, -1.7304860733493515, 1.1296532262005319, -2.762319508698234, 0.49218006948836857, -1.151633742125582, 0.3117809470216062, -0.7142914021790298, -0.3558986101006884, 1.1678290148952861, -0.04613517565570151, 0.057854600345340075, 1.2574257886945233, 2.2541602502039275, -1.6138940644152233, 0.7417541875856732, 0.1744236264442675, 1.248816112457799, 0.21638417699641066, -0.1703652585179678, -0.4621960456772976, 0.3873570666295848, -1.2155315596458762, 0.6765272390114302, 1.1582030761987792, 0.43069057624480717, -0.4437154182078669, -0.18781881149919247, 0.5513993466083333, 0.39044712520883307, -0.4220918736821564, -1.7245029770044995, -0.8010259709735432, 0.15690444275860196, -1.7849895504390116, 1.4948245451623914, 0.03341076291868569, 0.5031801517291447, 0.15752301043311204, 0.5311934001045724, 0.9695948181956461, 0.48764425177160536, -0.18239011968684787, 1.4538262197022869, 0.2378021048161246, 0.33377629563760436, 0.2390081629053565, -0.00571252222925435, -0.5899304756250153, 0.4917002911508755, -2.216737759435324, 0.02304283250357477, -0.2926951319683233, 1.0548444746487162, -0.35304763706717107, -2.2055986878581963, -0.4104111617036728, -1.481184810930333, 1.2116306598504913, -0.15920180037352422, -0.42113530536322225, -0.26230569303299195, -1.0360711885839828, -1.3418741367735194, 0.4269466309594882, -0.5659513465233373, 0.3379400007264917, -1.1876701003592975, -0.94092149593909, -0.3227248197360875, -0.4259217764013373, 0.85505465262211, -0.8360262464418379, -0.07465365737640567, 0.2279433080039086, -1.5097324036963078, -0.889501407291313, 1.1015898939712891, 0.5898616454922487, -0.8577580558860975, 0.26003299590461487, 1.05726494668397, 0.04760218378226329, 0.03614604031595059, -1.7319559647382514, -0.6965007915000644, -2.2193351953569347, -0.8799716647750829, 0.4023425496473738, -0.5990404106436781, -0.5224206544479624, 1.0953874295362627, -1.9641339523947432, -0.7765290550955595, -0.48845962285395794, 1.0543078076540509, 0.3623496826022094, 0.3825058427949878, 1.6611086626119644, 1.4722493230539673, 1.9419525533605546, 1.5242465104756446, 0.42336330470192607, -1.0590786810762207, 0.19980058350934704, 0.8065909054070136, -0.42656155568710785, -0.5914765209479319, -0.9967433836613128, 0.5647740859795226, 0.2172089191663982, 2.2897054681195605, -1.160135787354531, 0.10590756856041693, -0.38827483505930604, -1.9142072348081756, 0.8516892001243754, -1.0770597982756094], [0.14541404970397395, 0.055871048330741836, -1.5856982110071995, 0.32093485228521046, 1.007465094125172, -0.4067032013829477, -0.7337327975742621, 1.4672789537002306, 1.0452654326067123, 0.3189708012813164, 0.5878097535658954, -0.47014980759470504, -0.34670907031536624, 0.07731562899064046, 0.6899459940083683, -0.007811249521600555, -0.7058869355597424, -0.3899607439461727, 1.277602327211374, -1.1185979634133543, -0.3872499653354549, 1.0831343743588226, -1.549731124772638, -0.7467603782129689, -3.331421255776358, -0.4713213879416231, -0.2564999357850049, -0.7490104950783644, 1.4634497209314048, -0.7136385139258683, 0.15443638212390706, -1.8228185493578173, 0.40877408285284395, -0.5081364458668125, 2.1049236392257034, -0.0006602933082484818, 0.09499692650104169, -0.5630979677096974, -1.1051157749226466, 0.49207993501159547, 0.9104459022877632, 1.2579887542990646, -0.75648466472144, 0.1846406662393165, 0.3816739935966977, 0.5533161390928529, -1.6432980743754866, -0.754369789522387, 0.8061752448267764, 1.3875728605677704, 0.9593863158090211, 0.8926108454355486, 0.11728487477710575, 1.4085353712793487, 0.5653846974330918, -1.956968357988043, 0.9368784075912358, -1.9987001536695417, 1.4547560882675554, 0.43086815149799224, -0.051297678636735754, 0.9632059333849207, -0.911590612333936, 1.223012080288393, 0.8770560167620078, -0.9402797319297133, 0.5682716868766878, 1.6403330617511023, -2.7692500909554973, 1.0167098447470715, -0.0637632472565148, -0.6571680182316408, -0.884371561108742, 0.33390334339833755, 1.9858458757710322, 0.29920959757794685, 0.3515316857837974, -0.6394623398662141, 1.7579837386943138, 0.07271042443152854, 1.6093267536126512, -0.003200053027757507, 0.7154956604442803, -0.8397717120770515, 0.5207492510445372, 1.1721418505024797, -0.6944133363055791, -0.2798601993307364, -0.5984056140377074, -1.0658236897350994, -1.535179968575457, -0.6813067069159208, -1.9446699502477898, 0.8382840673661146, -0.49980666852897104, -0.01878362744459046, 0.6376890916878857, 0.9378008897826011, 0.5583328274955702, 0.6780905601271155, 1.0809682742888231, 1.253548519334642, 1.6128131783656379, 0.9651439197318955, 2.2901061834395597, 0.36693270998547567, -1.7019580396392635, -0.34006116185586027, 0.8631634860118964, -0.2011705389436182, -0.5334608073902358, -0.5365143463358963, 0.7478570074919534, 1.7103870541875281, -0.0302353322926987, -0.12958020017743552, -0.25134782871156114, -1.2174220782023366, -1.3616947386366562, 1.3007975651140917, 0.6413099180318329, -0.22765969373558653, -2.0801574609903373, -0.23355762504877386, -0.6724164566584121, -1.416137288458668, -0.09202189125179294, -0.142575571601377], [2.629162317559497, 0.8103377665659521, 0.2895726607136955, -0.36685690886182165, 1.0058522838201613, 1.90726686438133, 2.1631332552901688, -1.9527828540342176, -1.150970615464114, 1.1419954719003065, -0.4289572253700995, 0.02822849905062499, 0.4882389466157976, 0.1833602671696537, 1.1970362559030696, 0.5377273528479712, 0.080016747784329, -0.869597836035265, -1.9978682940231822, 0.028997194339878466, -1.004508778661535, -0.44227432580355425, -1.4572780721848095, -0.11308763392849654, -1.1454331662939699, -0.26570446491175487, -0.24933178040820902, -0.611852385881306, 1.5146616574151148, 0.5966295252375695, -0.7461096512238058, -0.7512792246775455, -0.6130580733750459, 2.2134246614629856, 0.4464358999136099, 0.18352668079213755, 0.5676252524898593, -0.21516117883946276, -0.8187822080691273, -1.8970571828049965, -0.8843589724830907, 1.496717422488048, 1.6386778635907266, -0.04142318511686932, 0.7303526860178904, -1.3486758849633818, 0.1608338425417229, 0.9041397818387278, 0.06551257935790336, 0.3369202651104278, -1.4244334057804398, 0.5508580840612176, 2.107441690422963, -0.4288346022355682, 0.863587687412046, 2.575651920428921, -1.4029926492632714, 1.7875587716960375, 0.2645282454649928, 0.8009734337423908, 0.3863370389195816, -0.23509092698221984, 0.5845108170934952, -0.38693538561945656, -0.4585781583120071, -0.8501101061390969, -3.135711646942007, 0.8649909617784471, -1.2946020032350616, -0.18753351030113904, 0.7886021647745646, 0.02952580179155406, -1.774924892514938, 0.8753022381172514, -1.0174267713056409, 2.392134500815502, -1.3497269913559147, -1.2862977761662433, 1.3355569571309556, 0.5888520177434606, -1.1436862900348574, 0.4886370429856872, 0.07897737866575877, -0.5912055281004662, -0.9894367742249318, 1.351735027530442, -1.6298899328845746, -0.3515393865479803, -0.3656725216355768, 0.1663908141900329, 1.6661255394208316, 1.3271961457270107, -0.19240982024049305, -0.04768357638592564, -0.2407631602429324, 2.5853081296647127, 0.9247893797817197, -0.30274977726580554, -1.185828010942447, -0.9906506015025891, 0.33995784452109507, -0.47715254430260784, -0.8395966331165656, -0.8304916038511069, 0.9345288301790966, 0.26590631459760317, -0.47871021961493343, -1.7546148707963993, -0.8504773055762989, -0.014104100189238612, 0.24932253577234903, -0.12541437906294584, -1.885516473722902, -0.2801321352541259, -0.456004487094248, -1.1853123821436822, 0.6154769564143683, 0.2654700043506844, -0.6610258680942219, 0.15754835465263667, 0.6887771095920372, -0.6019217976086402, -0.9922578508673157, -0.5064754406719816, 2.099273771980439, 1.2388048543443744, 0.7557703351447124, 0.3710213669249877], [0.8569148997161196, 0.16781404163279406, 0.6312585733971832, 1.7883251145851284, -0.5033838935808636, 1.4216695373353547, 0.503743395570351, 1.0286867592900073, -0.16199509026026943, -0.8551526282728475, -1.034539326894053, 0.9679460659755044, 1.207716684951471, -0.6938336588005874, -0.13455940179580103, -0.5120803061781118, -0.6672876021115297, -1.4944853870445216, -0.059672384133507894, -0.11798829242145178, 0.9675425714790042, -0.46125918057564386, -1.1126345159318136, 0.4500577343582866, -0.3268943183067967, 0.7089530872646491, 1.052818569313194, 0.9587515313002809, 2.146778158445809, -0.6716083631268132, -0.025239275779456862, -0.35869265406213185, -0.4311939485544728, 1.6490225244146428, 1.2568934625478083, -0.8968050701347429, 1.092945261547181, -0.5366489352753796, -1.2396293561722627, 0.9132552200125066, -0.13551524376972407, 2.3318461546846723, 0.480263401494085, -1.4794307497489811, -0.9727349788382169, 0.7703572365010364, -1.5641544569059505, 0.38759766333535584, -0.7018178290940678, -0.6802733808946516, -0.7465332284574131, 1.1097311086591135, -0.7289916977374504, -1.137489991639289, -0.24017179980127026, 0.8440050033388531, -1.1739361967399515, 0.46377101679797944, -2.1775992601092926, 0.250625772092268, -0.41220945776648593, 0.8294848280527841, -0.4540042799506174, -0.6340404502436517, 0.11708295842613985, 1.0692741517835438, -0.3088314868084531, -0.4338018971452692, -0.17986708088856024, -0.40276433215111684, -1.2798236315942486, -0.908676429370278, 0.34337407616459403, 1.4328316790734363, -1.4242243605873062, 0.5524946556327882, 1.4113524746503228, 0.9484794416797837, 0.3776410689884795, 0.9731902186756928, 1.240918728072928, 0.03640449426085746, 0.08075417889122842, 1.221513148365392, -0.8224838747076111, 0.829009182559561, 0.1067302761308464, -1.5167562348654606, -0.930799918223652, -1.8855412717333406, -1.402840938472875, -0.12664055518696427, -1.557923124693096, 1.3862104307268923, 0.04988057781405644, 1.5391814783523945, 0.6180473230159647, 0.44870262166485597, 0.2823421113987833, 1.0429438173337018, 0.30249002719527, -0.1629917134475805, 0.09909725791141515, -1.1135405120948247, -1.2946773935827884, -0.9838455426368804, -1.1404039638468115, 0.2715990766000516, 0.4181487293171168, -0.4056175684124395, 0.38705299464264187, -0.8293461924926117, -1.024321552899743, -0.05960130521450417, 1.9789646076594947, 0.7841737384114977, 0.4183037132906235, 0.5419614260157897, -0.38072864322751954, -0.2332013940994994, 2.6774322551248906, 1.8842826703143214, -0.11335648754852524, -0.6594920167444616, -0.7845661104962119, -0.11185099144263383, -0.44468526597283, -0.042267838311341954], [-1.6715644064880895, -1.077160334766219, -1.3567058782027404, 0.9785467396697384, -0.02980765566986001, -2.1234767411280835, -1.0394976719408275, -0.36783114296881675, -0.9671309484005784, -0.552011427208715, 0.2993972008755349, -1.2067503456254987, -0.4032246362235789, 1.104710829975788, 0.4027199391948866, 0.7346304272717779, -0.35699818162221286, 2.7556758030178474, -0.05915585252144246, -0.7534147866685323, 1.0969056808094506, -1.1259971436649205, -0.9624468336189641, 0.30380895919546586, -0.4984300809156702, -0.651415165802497, 0.9204732417259787, 0.41055903725855675, 1.4051210534118024, -2.3255675378366347, 1.3320610049923882, -0.6138584794408332, 0.39175986770100063, -1.2334066600680855, 1.2204737014597131, -0.2595916875107587, 1.2197469269512904, 0.5675428806482288, 0.5348289804321853, 0.6471883204337597, -1.7601821258788903, 0.28881340798247895, 0.39597158012229694, 0.7579447444184583, 0.27386731661467223, 0.47636158699395204, 0.8100101623359868, -0.9367178180851939, 0.9090987359176033, -0.20333145617477633, 2.5216184050054675, -0.5988042090890912, -1.0326081220479446, -0.11641390930152462, 0.669959997103652, 0.5799518975672149, 0.24429145128518492, -0.17120233626315365, -0.41044461309804714, -1.4869754950178764, -1.6873675092558604, -0.8402586590235354, -1.347527421792055, 1.4371531526851864, 0.4197612292687799, -1.2640522038915274, 0.10015781839422012, -1.2678351393927862, 1.3030827729150458, 0.9305414375956956, 1.6007563847892483, -0.47528396049443733, 1.435243655543804, 1.917416439017033, 1.8908383429498845, 1.4960243138957978, -0.369306312462411, 0.5751385477619524, -1.1212878409073297, 0.7211621940664034, 2.0341777045312006, 0.10970066084286821, -0.815553475171348, 0.41885885496286546, -1.0313374280635148, -0.08578737829547874, 0.4953996728308991, 0.2931954269557964, -0.4768243589371854, -0.2418779824063494, -0.02756212192177265, -1.2587699443917677, -0.6402891040187488, -0.08963917795623742, 0.529274367326368, 0.9236249392527276, -0.8985209771027047, 0.8630940658623634, 0.6123521242330999, 0.8028156847048743, -1.2259436807042472, -0.25083391772517505, 0.5860770210060439, 0.0961418669266001, 0.9395741504914431, 0.6863557292391056, -1.2305636133480293, 0.9355486640037338, -0.8958557137871718, -0.6084237297417153, -2.2117240752297245, 0.27133813624851894, 1.3356753654969924, 0.38296634377297045, -0.0025927285444139166, -0.575151344525057, 0.2354458911167285, 0.8507868036243077, 1.0247831002308165, -0.9189646582025944, 1.0475785805348834, -1.2944623782982188, 0.6666287138666983, 0.5338875646570564, 0.5229441670787831, 1.3592698918024135, -0.6136059976292523, 0.6311595963593323], [-0.8685399014506209, -2.0438863298864014, -1.5261145017682316, 1.4837034021298101, 0.25554471529657874, 0.11502747165689214, -0.4000239714844453, 0.5021403102922145, 0.48174760157965635, 0.4993716091026858, -0.22650610212324318, -0.07861809560436663, -0.2806005209506331, 0.36338293058737403, -1.0869431896874262, -0.4581486172192841, 0.5160614734522303, 0.2713061405807584, -0.187166588308107, 1.5105955464309329, -0.730821201077946, -0.7135120540730611, -0.843150997511801, 0.42795228640381294, -0.5787901705507075, 0.6459253187375172, 1.3780645306974184, 0.8820916296603543, -1.1554526830079594, 0.4346758010074323, 0.11825223325468814, -0.836576538049442, -0.06809166685091464, 0.31414623682947396, -1.9085800175147067, -1.750313477277702, -0.2934448059908462, -1.719074068575161, -0.7447798723503785, 0.6400868267786778, 2.3744569631411814, -1.334559677385251, 0.32735423572208583, -1.2665090705618054, -0.06191100218549317, 1.012980029223761, -1.183440279611757, -0.6635402549262533, -0.8526362313525745, 0.05354377225618561, 0.46309709064061505, -0.11239698922264947, -1.0347590445667643, 2.2001146267464073, 0.33692906790655597, -0.4311771658417201, -0.4389165745169, -0.07306190831807621, 0.4701202698544946, -0.28093838646880603, 2.2589499333548035, 0.22785992966306587, -1.3576554348875094, 0.6854515452808753, 1.360510070122907, -0.35734702068388613, 1.1068376602512893, 0.1137011089596663, 0.7336198004755436, 0.33967299843137705, -1.0937146167359617, 0.1623432278631099, 0.038809222847423004, 0.3318392412797514, 0.5177218398941679, 0.7451896182360589, -0.03204271902402026, 0.03619145821476565, -0.8846683334390096, -0.24051822763548192, -0.41214520476002614, -0.4519587665909929, -0.9494466558335333, -0.34094376881699007, -2.1896465754835046, -2.594371409012489, -1.404879264843611, -0.5209508290575644, -0.5311783442305571, -0.08840723967305955, 0.18556492649266543, -0.8655319548829028, 0.010078476906119965, 0.005610340302473564, -2.3750481422365928, 0.13396081510266417, -0.7455649711726069, 0.49216352435775407, -0.08888479187659791, -0.37573697033581394, 1.6588153139341928, 0.43000431103315534, -2.6957767416048077, -0.5507476034270946, -0.39110660079068066, -0.8806160650556852, 1.157728760888769, -0.56274835016439, -0.3891903826154454, -0.09657205752098741, 1.553511330431856, -0.36558471815724547, -0.22817385185475464, -0.36222621697804275, -0.7230526155143044, -0.9877664716935871, 0.7378251051413026, 0.6341457774488054, 0.7817796062708157, 1.9693156734524286, 0.5746196811859043, -0.24698714346885897, -0.08141390578116521, -1.9224134701015305, -1.2074233123961189, 0.8209663982459197, -0.7763186174449727, 1.7549302943655944], [-2.113787990452139, 0.5550269598974175, 0.26916969874726704, 0.617323211930128, -0.36893843603658705, 1.521563678315962, -0.39561823487700604, 0.4073424017203652, 2.0964024976229463, 1.5477450745442227, -0.05384107746888754, -0.1720710748947213, -0.5674787585485355, -1.1815591968414594, -0.2128481929256242, -0.5894045552181125, 1.2856286221916498, -1.3643784349053063, -0.07074118286844591, 0.04942623205266822, 1.1578178248253075, 1.532341171025813, 2.1933210480025847, -2.5548145769363937, -0.37006706477688583, -1.628143517756112, 2.2148357907041776, -0.12458222421026595, 0.16938081542772426, 0.17317115415531556, 0.7677018167019944, -0.46785874436216385, 1.256800628542119, -0.6016081223917858, -1.1809628888950554, -0.03990269606530847, 0.24335353960388925, -2.4209219688020043, -3.400657182561449, -0.5638768878988288, 0.4344072660714569, 0.5998778112837166, -0.9013025511916197, -1.0896375067458774, 1.307517977267387, 1.1131636065901251, -0.4500896663757615, -2.4641043463607377, 0.21748411951986227, -0.43065393730213286, 0.919256348321157, 1.0205915354067985, -1.3381598083110673, 1.4173120038730342, -0.8983018096251416, -0.9601236874018906, 0.4106161114938907, 0.27671549783333477, -0.8498772956350562, 1.1124007537992953, -0.1269899009575814, 1.0130667315028175, 0.38893605332627657, -0.3270225008068254, -2.0674740509074354, -1.1240610491041647, 1.4797602544604325, 0.25760233190822096, -0.5694465420191086, -2.104141019550021, 0.7246754113293595, -0.6223494994072263, 0.1844917629850669, -1.5196981819179838, 0.9961206124526159, -0.4383162251915026, -0.9041695906722093, 0.7572045613471805, 0.927152527781341, -0.004821134537729608, -0.8580736326451289, 0.07678314767780099, 2.3583450742685015, -0.6099479936534682, -0.168176188893677, 0.06233695120677639, 0.4843361767592738, 0.43119901586034826, -0.6145397049249656, 2.4498221123798976, -0.1967806982473249, -0.5205206791516088, 0.3497046498622351, 0.702742896804244, 0.9160478120261284, -0.8302757926412919, -0.8551766542905502, 0.0808312755081009, 0.6029165051776902, -0.2493672540533295, -1.3707750950519895, -2.536380545401532, -0.4363096797356866, -2.0403174607524504, -0.6920066625845503, 2.4799306681408497, 0.8757136234636269, 2.162258923960713, 0.2617174527067749, 1.1056138283116637, -0.8783482974694212, 0.07106706996996853, -0.6562390726645707, 0.8831628691297577, 1.5032199742782781, -0.006944610778349631, -0.537240196067453, 0.8539597888695913, -0.07321212086251236, 0.9883252650868046, 1.2647856423797503, -0.5270599041471937, -0.5283691613110394, -1.1436024037619252, 0.8700006812831591, 0.8173694618927378, 0.38270959249343595, -1.389404933945454], [0.4941030909037453, 0.548651284538061, 0.04649137066699433, -1.756323654187603, -3.030730284804446, -0.11855971835795837, -0.1643468634899645, -1.3186854563166135, 1.2877885206209714, -0.7479175847374337, -0.6287296574639116, 0.4371581272544449, -0.06347096371404014, 0.0726749033388574, -0.986631140222716, -0.31004432467531845, -0.11944046493523756, 0.5500530535880656, 0.05351867736842549, 0.5814499841656838, 0.10339557849856751, -0.7406063984692429, 1.400011331123153, 0.514247112714961, -0.27652409759798136, -0.18978296728721775, 0.6601212729740507, 0.21391152493407445, 1.0093791354982895, 0.712087653024721, -0.1876611249081247, -1.7713626181895978, 1.2581681602125445, -0.2398092376674294, 0.6036008672306733, -1.7813144082181929, 0.47279260489511926, -0.01813411514593841, 0.09154851682852284, 0.30883274345589556, 1.1241887544069393, 0.4598718892034805, -0.9032907227200752, 1.065915007589511, 0.0674066229997322, 1.9125853356440388, 0.9768667258557769, -0.284515238665134, -1.3791068326664722, -0.74647465812295, 0.7246635516892187, 0.10324077561342955, 0.6569520075855914, 1.4585483359816014, -1.3169919859848673, 0.9313370500584334, -2.191326231154809, 0.9702421021608466, 0.15312574650381588, 0.7314808670591069, -0.9405410361230241, 0.6616485994806162, -1.7093333284327277, -0.5028578240512683, 1.4848317327614606, -0.17568801514814741, -1.469496097335328, 0.6534337221986347, -1.1906884258979595, 1.0773206817463241, 1.5345312964151152, 0.44813646854980893, -0.9841409604733725, -0.5064884192985487, -1.6048819097172573, 1.3067038008466012, -1.7305177542092742, 0.3108715754252464, -0.054120595788236095, -0.21804340176011963, -1.043251211180788, 0.4447228513075493, 2.5906142402490975, -0.6976581410710134, -0.8284767571567154, 0.19475066314288184, 2.583658751502929, -1.1535770843147979, 0.5916402610851538, 0.6029260828935553, -0.21039868548530688, 0.07688308721821083, -0.2948631124658822, -0.8164253454908574, -0.7611297473275185, 0.7638448054877122, 0.29921278598811996, 0.9804754997348274, 0.2956608028768433, -1.2330838158445114, 0.891562760444553, -1.7197192723889012, 0.6988503540698837, -1.0121601297497664, -0.2088991469726798, -1.4551431349820116, -0.4764656621558046, -1.4871133207561258, 0.3161233604887927, 0.6576129867145889, 0.1490307911722599, -0.4813342460233093, 0.5566693085828245, 0.5324982870992163, -0.3498578109072086, -0.2767750540279291, -0.29620730714462995, -1.251871582630407, 0.265838809102834, 2.2488131166791203, -0.3943177750243249, -0.9172049314342301, 1.033509527870079, -1.857360048796011, -0.2348077881579217, -0.9142712657076065, 1.6555920249798104, -1.5648231416134837], [-1.4634179288546105, -0.5728064006865776, -0.3029888079594385, 0.8156774529220635, 1.4077374022669347, 0.44567985608539973, 0.589831780925766, 0.7843455779986682, 0.5571711031377106, 0.11147942465818071, 1.077345244705025, 0.2204051045788286, -0.5203814507792105, 0.1080866668988643, -2.7537154358518086, -0.5982175856119846, 1.5586245699724883, 0.769579968826178, -2.5887884408036568, -0.19521846926468361, -0.7552842680222702, 0.040115288821851294, 1.1069313097762667, -1.8203597221752765, -0.15310700800751445, 0.4231525746662638, 0.44879367972537954, 2.1022070460291022, 1.5087524176867453, 0.4878954682050536, 1.1666692173612874, -0.35613927916031696, -0.12146524780424195, 0.8234348054960005, 0.44202276472299934, -0.27534995331934514, 0.11320383604192251, -0.5163312217047381, -0.4736750150734862, -1.3102733204018813, -1.041493951159409, -1.0335843544447043, 0.9254876007896204, 0.18947185957145354, 0.15170612785610693, -0.42616466619951743, -0.17552379758798828, -2.406237527595174, -1.2998856735692925, -0.35043636241145515, 0.0004855686716806404, 0.318458043772982, -0.7091026175323559, 0.46529834230906253, 0.6250392592220757, -0.5150823270567653, -0.09006168501945241, 0.7662987181327333, 0.3245957221616578, -0.0946261158798199, -0.7619064731850669, -0.7416273090363882, -1.0330174686352533, 0.44192638389028494, -0.8059041160807513, -1.2234920180414441, -0.8021090850685895, 0.40102235034271666, 0.17722829266965032, 0.8579278664852796, -1.4999727601950905, -0.25607550042496335, -0.5711208610500422, 0.8676699237570552, 0.8703167814495039, -0.5990062153790039, -1.544848319173494, 0.7085934450807025, 0.980691949185639, -0.7581893348841511, 0.018897350830016858, 1.0017610261525849, -0.3581563701149062, -0.7075037946376572, -0.7150025658238479, 1.0204196064388955, -0.1686441308465737, 0.3843640239512502, 0.0935106056517874, 2.0263992787473604, -0.4965425750420897, 1.2046387925072328, 0.2704662464993411, 1.5027926004006644, -0.5804623180709234, 0.43971276566407386, 2.753916282252774, -0.2260904065635693, -0.059614720510090966, -1.0378493894267389, 0.07084661666454156, -0.12259626159544948, -1.4012357282091763, 0.4296460601559246, -1.2866637776484102, 0.3296459447052972, -1.1877487422607529, 1.5929554595311493, -1.3321806548743975, -0.9738207670686775, -1.7286281070865166, -1.0233873620561786, -1.3975935773938477, -2.2119654316200217, 0.1283803796425892, -0.8871204380420921, -1.0388605011144851, 1.5338650635143922, 1.6326986973122921, -0.3950645820322775, 0.7675137332328525, -0.8574683311727482, -0.5326095597008446, -0.15206393476543953, 0.5617628378496234, -0.7199549832290947, -0.8457921448639525, -0.37190481790479496], [1.1716472774061277, 0.05695411193176565, -1.6335370058128649, -0.2617840315352102, -0.021873557495274393, 0.7605246556402631, -1.5869059445204563, -0.634659080719436, 0.6718371132851522, -0.7883942144550405, 1.4821091450063926, 0.25549751134951365, 0.7999857429675375, 0.910235085159506, -1.8264415553020237, -0.3802150892346224, -0.055051681322194526, -0.2076415979044527, 1.000744577845377, -1.241820036624213, -0.30095394457330027, -1.527484953248177, 0.4878224753906332, 0.16914556804861264, -0.5838981657655212, -0.1161719451598588, 1.5051353437482873, -0.07936085205991122, -1.2984243099020631, -0.8927149356425848, -0.02777885420931136, 1.041388974592089, 0.5954486181469564, -0.05742882862779868, 0.7695597998462105, -0.4801699069787203, 1.5137687812489689, 1.7046436846942497, 0.8338430272752131, 0.9757601565404012, 0.01880061026508027, 0.5733078247203263, -0.3691397635208867, 0.7909787315951096, 2.798721179720982, -1.7707713474815872, 0.6380830689696931, -1.006607890985497, 1.1522638735252624, 1.1622360738096182, 1.106804708760649, 0.8933041187278717, 2.6192973969074784, 0.06505519567684927, 1.7294820521482188, -0.5489281081447066, -1.122419249444951, -0.26587632431162594, -0.05731160521741215, 0.24069403606261822, 0.19622733333706452, -0.33695525026765816, 0.08194115701747551, 0.5922521968965688, -1.5988189592496669, -0.49277801358132495, -1.7264478587604317, -0.1689555661977871, -1.6597129859365058, -0.4315042761042844, 0.9502553841857447, 0.7802215400650528, 1.1170639156734785, 0.25369154395519566, 1.0220372622850649, 0.6016965165670913, -0.13474045347326172, 0.4755129811429069, -0.22677835734457313, 0.41747932837247403, 0.3560848335190672, -0.19187830923026414, 0.0681967039390929, -0.43621554853989597, -0.03591112569749329, 1.0476801266792068, -0.06587209962961565, 0.9792764268941468, 0.2891249958501179, 1.1391351204329996, 1.1962596020896226, -0.3512477793110302, -0.09549524475871117, -1.2564991649725936, 2.023354148126861, -0.9169009238073101, 0.1994160925064826, -0.9061392674580698, -0.5675845734280178, -0.029135062950026432, -0.3350684931363966, -0.725011001163994, 1.8483706966473594, 0.7331653143354355, -0.9427948536687639, -1.5756185145685113, -0.1820274757851252, -1.0437969300239636, 0.32678763237515257, 1.04421557102786, 0.39278203420235497, -0.819432337499148, -0.16126446839734876, -1.6797931325012365, -0.4500463873650799, -1.1348303283782526, -1.529470131954312, 0.6479968775490016, -0.2784166999880276, 0.2192117498425793, -1.7110512750893982, -0.07782916879908561, 0.5617577831168868, 0.5835461788664854, 0.22293029746576812, 0.47355436490900127, -2.511736907174351, -1.44989839619666], [0.25753665051733926, 1.620352876861948, 0.851948619001015, 0.6749891403221393, 0.28077137228430094, -0.01782313671548999, 0.8550602063288965, -0.6073346378064143, 0.04583927457773285, -0.04709078670602967, -0.3513839856186842, 0.5591503516841451, -1.0192240373038866, 0.1544518169494888, -1.0373782824762683, -0.7935771058166524, 1.1741090284151843, -0.8624844349814528, -0.716695380098689, 0.1826969911512926, 0.19392999647972048, -0.6164107112550065, 0.14497903158722936, 1.337131605186549, 0.0682248036261766, -0.09779217049714609, -0.864961584579513, 0.2795240855592823, -0.8024600733490276, 0.7105179044816522, 1.8166156098249773, 0.6593223403337566, 0.6630879570729757, 0.2865131863039404, 0.65182619109614, -0.17442803138713384, 0.2427994285279122, -0.4106206761829808, 1.9916136957810209, 0.3228669478103055, 0.7447310601624321, 1.3584348354232945, -1.1114124544396804, 0.20809744257654406, -1.0964437793761133, -0.04317686953003133, -0.01785560704388027, 0.6325053974082798, -0.17641262105157446, 0.19982916409729407, 0.6169997757472009, 0.8423676688032148, 0.7289196352483805, 1.8448470071620082, 0.1516895437350416, 0.3432620372489385, -0.019913087979145875, 0.8404550424904553, 0.28924880684706206, -0.04686943999710052, -0.43860980514006837, 0.8379391437738575, -0.03239610033087114, 0.9683488769158001, -1.6702050764086565, -0.2781434400020562, -0.030006897269010683, -0.33580042240224733, -1.3798327129414965, 1.0215050890631883, -1.713300864983226, 0.9450843243779083, -1.481430046262241, 0.9984203259083331, -0.7659980868384287, 0.48170530855396426, -0.4873339453337453, -1.521429210454127, 0.6919424929729431, 1.3645251181359834, -1.1505083348780127, -0.720465976393714, -1.2619741396042146, 1.4957237329319488, -0.5139255109866636, -0.7430823309824309, 0.1785485594276186, 1.098474766462344, -1.3249691399079528, 0.22703925038848527, 2.283074028505329, 2.0018682615222754, 0.30756615721318453, 1.6286069059498687, 0.5562286883704984, -0.16045272363727608, 1.0743898246234371, -0.231589474114967, 0.1391461147524676, 0.33813405799132484, 0.48069220800686463, -0.7176030006937539, 1.8741742365464178, -0.7215866685228897, 1.1413197588812727, -0.7570861620930388, -0.14792926648076732, 2.5183183857117357, -0.11440724864024641, -0.13750442637797267, 0.8537091037626107, 0.677229171922436, 1.9371104133887431, 1.2578161240324643, -2.2965490522998615, -0.1424949869675111, -0.492863506203711, -0.13294409219256423, 0.5105761473106327, 1.1282617274381865, -0.21355541987588458, -1.5278960461558324, 1.6839627171038793, -1.4747923384744805, 2.647318224995646, 0.24540801772338353, 1.1356041031964856, 0.6903186806799166], [-0.7696415804940413, -0.30419470468559956, -0.04492089977839528, -0.7291733315461357, 1.0994335694919637, -1.5580988145661334, -0.14824566169491957, 0.19857588597771725, 0.14082196921510692, 1.1953059812104343, -0.008975105270312124, 1.95786549144938, 0.51126858079166, 0.42440811918864346, -0.12635052674680783, -1.6240086189957137, 1.3768779107310816, 0.49044198407394246, -0.25192981449021906, 1.6408677339933169, -0.6667215824403334, -0.27499275774072024, -0.24232842357599657, 0.0055284513150893385, -0.26165900687298094, 0.2294400774377495, -0.6558745926930101, 0.4160438104049953, -0.4613694977658914, -1.893404650894946, -0.7098380475717216, 0.9312365414257519, -1.9372679824173877, -0.047710670751249316, -0.2742788515974037, 1.7079566006381366, -1.22631118784743, 1.0311593532235803, -0.8303671065379831, 0.460665059015016, -0.6750595180494829, -0.9938391562257635, -0.4218249568640627, 1.351604478760121, 2.0677490245233354, 0.452315927138032, -0.4082930797127249, 0.937014887034149, -0.3542029856992426, -1.0032185171770074, -0.13244716063157994, -0.5865979286262902, -0.5618987444508695, -0.5553946564439336, 0.5332140961992304, 1.1221747568096425, -0.1320779865436672, 0.9214804815404144, 0.48438129087850484, -1.0720041738362762, 0.3711235088511394, 0.9155292101612416, -0.44148466555172894, 0.7725290802342327, -0.05224460826903916, 0.5646521080302522, 0.07134512934587711, 0.6696233463245332, 0.5893325972429961, -0.7665607284168124, 1.6280913568324864, -0.08394886332617867, -0.056707187317613754, -0.38992060808139, -1.0990551444145806, 0.8189907568460829, -0.026371155568403845, -0.07208860511711364, -1.4182227282998199, -0.04765108982659466, -0.11511649555844258, 0.18400110053232924, 1.0177014879177362, -0.816335667947628, -1.5945569978916871, -0.7641729822360671, 1.9535121856527207, 0.6476029009616004, 0.2634143225218701, -1.7352496503927393, 0.7342289218560729, 1.0702598650013544, -2.3207777130132774, -1.383411525265449, 0.8754424713647774, -0.304049264755359, -0.540950059431242, 2.198016616897225, -1.4655034663148516, -1.7707079567192516, -0.6492339199604065, -0.027897739422277266, 0.7237682922997317, 0.9474291378707446, -1.4104136737668, 1.3065779000256148, 0.04874927617939009, -0.7226932957729668, 0.5438301701291229, 0.14475028199787462, 0.7101386661530772, -1.4134859590147921, 0.25673514949444226, 0.19959764720743148, 0.15248557950416775, -2.0707067329497986, -0.7700086261292178, 0.2896953399975368, 1.0895874064803581, -0.6320475481504122, -0.07863349121047422, 1.2011939366338877, -0.38986849387905714, -0.2682605301843053, -0.12481112676489685, 0.16709451296803918, -1.7955494136814347, 0.672966976878418], [1.386690918327492, 1.392697566647857, -0.3928327352879048, -0.5889415095892998, -1.4674007794238026, -0.429984959657743, -0.3504124931043675, -0.028553509100743342, 0.5278973080442276, -1.6551439097722094, 0.832975093217894, -0.5862260396263698, 0.6941711110540371, 1.7581575324315077, -1.2217191094293025, 1.1240878937063281, 0.4482513129502731, -0.7425820862388437, -0.14079643880700662, 0.029376388095232086, -1.488896137390956, 0.5028291506930913, 1.2278547913966198, -0.7670300645053097, -0.34756207882980483, 2.2052571519951565, -0.330013796227315, 0.09998573947788, -1.2437913241078524, 1.2927735826077038, 0.25777118054049564, 0.7096674608451479, -1.2483753150695156, 2.3440452789630886, 1.3365702351919897, -0.35934582853247404, 0.06657075205050822, 0.5741771768770447, 0.5835831718722488, 0.07996435597544273, 0.45906779360960903, -1.1266332665966468, -0.3657463846355111, 0.311248921498046, 0.39909386732718083, 0.8727837993550727, 0.6060099413003541, 1.8381407686658422, 0.5544376996866714, -0.06980560548230341, -0.9359606029449228, -0.8053943655527259, 0.7164195503016588, -0.9256051211814346, -0.38522696213034296, -0.9239716878063295, -1.3531645033288415, -0.638373623091694, -0.42471544443800396, -0.33365122071548775, 0.1699009884587824, 0.0925796262290727, -1.416505534527609, 1.020480318439791, 0.9519008500713858, -0.30251595264618225, -0.8274436005458914, -1.1068207777953556, -1.3255726123481302, -0.6287475575278456, -2.280517445905449, -1.61148961027333, 0.19111935438750471, -0.10927137395730877, -1.2406082109405507, 0.47530072201581663, 1.1377799784282692, 0.3671584941677255, 0.3243887272580082, 1.3758583242780342, -0.8924242863079694, -1.494101056473, -0.17799449493674693, -0.5685893606684072, -2.0625515117554105, 1.0973933821166055, 0.951247101147016, -1.0829313317085312, -1.1919677180410992, -0.8602029455363286, -0.6115875200290775, -0.43513708561674025, 1.3539915135536578, 1.6000168663821053, -0.07107662152272609, 0.9304326797038982, -1.0146584718967246, -0.9140173624326035, 0.0564626495856292, -2.6892061216262064, -0.0014939479728224036, -1.0432461218978273, -1.707602465516775, -0.43372580843137776, -0.9295154204398958, 0.3329305135760022, -0.24700444061789223, -0.3930930523922686, -0.4638781009000575, -3.148482602569259, -0.7442274475204386, -0.6546736491508791, 1.953920680139904, -0.3218596764784273, -0.8313836611366534, -0.035243968783284715, 0.34791676059488247, 1.1704304263221246, 0.39947904157152453, -1.97756923062829, 0.7281527889662527, 1.1507994906954329, 1.838050601726176, 1.1082796407011715, -0.7289316853402587, -1.8179563055777688, 0.3310478244220184, -0.8248684143242954], [0.32510098647746244, 0.3379277145322321, -1.806890455737385, 2.4393715190531466, 0.291803586111421, -0.6811083012072133, 0.5189031193014899, 0.697531883481973, -0.053850970722877284, -0.3977223170839973, 0.5565953939717643, -1.2581175321328864, 0.44577738707360076, -0.35057755070877544, 0.6645722450762128, 2.2371895471783154, 0.18669090625236084, 0.4291098263993363, 0.7004040501041413, -0.29099311224179264, 1.5597913899185927, 1.0211689273750757, -0.9149232191611099, -1.2069106659600528, 0.5783225581806989, -0.3599531292624157, 0.4414969175143045, -0.8878590920440385, -0.5350284736752818, 1.0252300425471084, 1.1395514853969888, -0.41062377469695927, -0.06816432804168525, 1.4612004792892301, -1.1786935519341293, -0.05523527415892254, -0.24838405894781052, -0.6487046588743204, 0.17400418093131592, 0.382383761963683, -0.6889293306366878, 0.20970479659458435, 0.042544125355684956, -2.2887364947289712, -1.5372418569731483, 1.490799969037057, -1.374531797800413, 1.0121721739057807, 1.6711594163111543, -0.10115280809573957, -1.001452995957598, -0.37827173464818487, 0.20509524913204477, 1.5113845394286483, 1.1810769013755356, -0.36070239277660743, 0.4744676039419411, -0.42873035187571784, 0.8956032533228137, 0.5970242539271403, 0.4729594412103831, 1.4975826864918351, 0.44702126582731583, -0.29147007425514115, 0.8693470944692255, -0.3058890756062321, 1.712558334477957, -0.9390150006799436, 0.3283278156640596, -0.5797099602552, -1.180022344558144, -0.805615089702146, 0.15690182791500104, -0.0030068338959438915, -1.4162422230573237, 0.7938692985474369, 0.6056041143268482, -3.1414068689246437, 0.27954165933814645, 0.034932171501465714, 0.4837063922943009, -0.05107688255018944, 0.6533583953359045, -1.266894760012079, -0.03930431986406121, -1.6950843553161903, -1.0139800801778953, 0.41351290829209747, -0.7840798120083572, -0.1351891732832379, -0.5009932519909533, -0.7299191091746645, 0.8979665768068937, -2.021752831673954, 0.4178212948925873, 0.5337115655465036, 0.35241836936863963, 0.2138290318022067, 0.4483916486168335, 1.0373196136833198, 0.5838634135565779, 0.4790405207829, -0.9907163519193118, -0.9559092225092448, 1.7507814732230158, 1.0065951919232718, -0.031274269405221204, 0.6610903398944667, 1.3674211787714348, 0.9980152492525937, -0.5290801949771508, -1.1285818661195333, -0.7026108004894077, -0.03260670520815223, 1.7561382390778697, 0.0970180264685861, 0.2876897532192249, 2.0833059776483367, 2.0209260454712434, -1.040501884475149, 1.4419271250315793, 1.108762002068144, 1.2243127410514167, 0.41315336638426364, 1.2195023831721872, 0.903798665326882, -2.1391278282023998, -0.6641015265126546], [1.0099175054796936, 0.10811340724343606, 2.315556222646125, 0.06969753908907599, -0.6561141051430068, 0.9859564433286797, -0.3402350522551038, 2.791634268642483, -0.02296590523659593, -0.18100757853799415, 0.2940666697004612, -0.5681829493094788, 0.6379128207558784, -0.8216110881376959, 0.23277800650811115, -1.1339020972823286, -1.4972790789690604, 0.3060950286178152, -0.5849197335505868, -1.1581286245289413, 0.4587936250828078, 0.5563302799209623, 0.8631396474787929, -1.648137737137165, 0.2283213447556091, -0.37179919886899915, 0.30772005008366565, 1.461221360217367, 0.950155521994916, -0.5645691214630877, -0.10102169263229085, 0.47357219481657375, -1.7224472000381814, -1.348185418464887, -0.2595745902715403, -0.2891452396728303, -0.5674807903277723, 0.543917129002839, -0.9376670538219615, 0.15007452489781267, 0.2928751585563633, 2.487226982494175, 1.0640903144022489, -0.526346116212993, 2.503451380984555, 1.1011567865477654, -0.2313043609423037, 0.09143497610678944, -0.8380760913077441, 1.5320428162352113, 0.9242470311554165, 0.19463440534550042, 1.5373693204243006, -1.0511300999213133, -0.5026392476119356, -1.2809149245415814, -0.2594060454442173, 0.9405742727698178, -0.12985108159142947, 0.35526467881604773, 0.8875870272812926, 0.23351945919076136, -0.6860010474253235, 1.9725555071470047, 0.3586755629019323, -0.07785816120914445, -0.8180090637808344, -1.2762694904172525, -0.035389217633634514, -0.029032366709847806, -0.04221983834084226, -0.872511294577134, 0.9581232127557852, 1.1135897272853899, 2.1087911772122543, -0.43771409614801643, -0.757260074055204, -0.9439298743027144, 0.7490895408934927, 2.4069632515189388, 0.2582114522192215, -0.7810380296735954, 0.602767117372326, -2.513134443110845, -0.12333871012060485, 0.38242959372438046, 0.7628601453819037, -0.14953850698759646, -0.4573006400953543, 0.8813391789044375, 1.9301563268223714, 0.6555408467321179, 0.22602143617316767, -0.05138088478156933, -1.7415576315533836, 1.0127260705369283, -1.8103716072910359, -0.296453945254371, -0.3890634883326684, 0.71838913140622, -1.3394091935922354, 0.5790616383562533, 0.43804252494586915, 0.26619747155768747, -0.3529770096925641, 1.9619998110257317, -1.1224888729515297, 1.6958076620633271, 0.23743860130281438, 0.37866057680515414, 0.8300879737571704, 0.2436270089753608, 0.05673582852805273, -1.2774755914807667, 0.39256808022043005, 2.15831864334496, -0.13192017958116045, 0.2959745273976039, -0.643704023001659, 0.24155361245246207, 0.5552644122684892, -1.1365596909628446, 0.08064883413809872, 1.0579081071442344, -0.13848211543871985, -0.3499921123997064, 0.23272553119012343, 0.5281119318399023], [-0.6878445052480686, 2.487290052713585, 0.04352226605663493, 0.361655972358559, 1.0132927187250353, -0.824010059558956, 0.5878405254882048, 1.1305147908202215, 0.08780395652878124, -0.15321403603386854, 0.8028519745381936, -0.4760565012234223, -0.6661408800639799, -2.0381107409891226, -2.1805206171335176, -0.07983589616821596, 0.9159040824238761, 1.6444480539125974, -0.5936308430631195, 0.1001085480911212, -0.11493361364260074, 0.24417790844417078, -0.15980695720263496, 0.13306494514669637, 0.43067609131819407, 0.7552390820777602, -0.6656991809195577, 1.1317774570253956, -0.7378541085969123, -1.7075380631605603, -1.7486174530693015, -1.1546642711384398, -0.18935600024799448, -1.157139417028153, -0.0961927475430778, -0.958560718844701, 1.9270640898367868, 0.1254933330623492, 1.2050584591952656, 1.239870111741485, 1.3149419726413298, 0.2005356303002667, 0.6507238865095364, -0.10016623846011384, 0.12735012186651132, -1.1969584054006925, -0.1206577793638745, -1.0338218562675503, 0.6797421135228969, 0.8801543806192498, -0.7317715573964781, -0.9962469464173099, 0.5160081524974982, -1.2819367506408001, -1.3017128700800153, 0.19426466909927412, -0.3231342684610898, -2.2029887428115913, -1.0917904176685433, 0.9641344416434066, 0.8921954934784402, 1.3447406249484202, 0.33065350708502383, 0.7467669384743445, -0.027039024425833644, -0.4818758244059814, -1.18636945302243, 0.403673022729934, -1.3220341050808198, 0.6178231795601886, 1.8492460272693934, -1.013652035331399, -1.3068560741305602, -0.16766486522459784, -1.3759390958877062, -2.8344603614265695, -0.7094269577642186, 0.8290006183860491, 0.4125333972157476, 0.8315839495403226, 0.512963701412454, -0.7871327430422825, 1.8467810949001566, -0.5240105585821725, -0.2833500039114525, 1.1680884443602273, 0.2013685322872746, 1.6960641805003225, 0.25728134171385314, -1.123969032767815, -2.273832263636671, -0.9364801790617424, 0.25140335803387237, 0.1728361960097368, 1.231524646049231, 0.4856239870572975, -1.1696830633733162, 0.17786421461027757, 0.19350533322421137, -0.48849763072049723, 0.6514077562282526, 0.10472499207327353, 0.34003654433842323, -0.8864828113725334, 1.2976439117510945, -0.687924219279026, 1.2913206505166561, 1.0410701372577027, -1.2976952463552087, 0.07699682927638521, 0.014127592299994255, 1.159810189518, -0.9675829171061736, -0.10436973025694554, 0.8019932670527112, -1.236370290829795, 2.3198994674058206, -0.13139024945655406, 0.23356537087170784, 0.37447195164141894, 0.21401778065410743, 0.025939788333859886, 0.027017836597131722, -0.26279750641988536, 0.4143496642740066, -0.2220488868882643, -0.5998117662920609, -0.1336034817976738], [0.45863314760788254, 1.1475172922192372, 0.49532026137563323, 0.6950955977462034, 0.16662622683223102, -0.09000934919644676, -0.5883472554947177, 0.056828241232026275, 0.7373458852537291, 0.45167491753185973, 1.4272379935137731, 0.0026144377894567836, 1.3683055850495696, 0.8946280483917067, 0.9176904593896189, 1.4548782379677418, 0.037647529693397803, -0.8368776314070611, -0.7646884920833802, -2.2187913398280372, -0.3419561397127465, -0.006150389717367854, 0.8193889346130507, -0.4042978947835791, 0.7465903373186719, 1.2869580613484937, 0.5497387601127893, -0.03489063729269865, 0.5412794082939809, 0.5337755800656256, 0.45482045515539776, -0.770966145472761, -0.3078694596499068, 1.6520932364777285, -0.04549134131524134, -1.6513133868337273, -0.33538059247929825, 0.5429191945896551, -0.9171762161145265, 0.3760253742477409, -0.4350520630243342, -1.8941333978804038, -0.6524372917554462, 0.9568988160511738, 0.12438414631979038, -0.3207633204004469, -0.6140094106614803, -1.0268798527748877, -1.4954358997316761, 1.5474509442500595, 0.7104242222329251, 0.4188788369267458, -0.28746393037626794, -1.1624973907996619, 0.308541477859332, 0.2700945179505626, -0.8637962960186616, 0.5576451252473048, 0.9374717688997813, -0.7028303190931919, 0.3379335716530283, -0.3125691734291826, 0.5376117838791186, 0.8498349761316448, -1.4055374112468484, -0.27512054871119573, 0.719812940536286, 0.48055970087595706, -0.022208356041036534, 0.3897350617814181, -0.9231769930967703, -0.1132546048600745, 1.627182012804874, -0.05244903938627086, -0.6641914040756842, 0.3710881029189349, 0.10775208017293536, 0.5360405624499572, -0.03240159031476353, 0.9362033517851405, -0.9868054194356428, 0.061654169713062305, 0.20221065845597613, -0.13558996613123, 1.2319499522430941, -0.36863100579189234, 0.37473497445413256, 1.1439557240565725, 0.9762563343628802, 1.411751491134448, 1.097775698852473, -0.13839058329988713, -0.08864794491025274, 0.6868353574057047, -0.6644462462530869, 0.27036044228177186, -2.381704312657674, -0.9389251850613441, -2.121011095363098, -0.09150121328819663, 1.0094922344221247, 0.25446813247152694, 0.7403810049046873, 1.424415209536102, 1.3762707264673484, 0.0258209922357925, -0.6643640087664276, 0.31612749570289356, -0.20306979493106928, 1.2512416449543469, -1.1458744400582426, -0.883980393707893, 2.147355578993417, -0.3036317452778782, -0.559429144535684, 1.0527931760758977, -1.0279656945318538, -1.6103296114426042, 1.1269361544936405, 1.292283229619895, 0.5893771617477946, -0.7883703989370076, 0.30991397807824467, 1.0991551393430694, 1.6491676388331276, -1.1547361882768659, -0.49030183500219543, -0.1505572913729499], [-0.42316193239403405, 2.012478401998017, 0.6080255481747925, -1.0891914946511478, -0.047411725098468506, -0.12246916133361355, -0.6021406196143996, 2.1637870038873315, 0.6291109171261042, 0.5432968358165169, 0.7944089199613038, -2.7638752006144554, 1.8711948700393801, -0.1424611903351581, 0.16618145558564915, -2.0693778036972663, 0.830911480886924, -0.4237931068717455, -2.1895239860520697, 0.12178473074176903, 0.10573602443710678, 0.21243472719252474, -0.5825632391664546, -2.5063839918983315, 0.4941558360921599, 0.8906938889569688, 0.29273779498735014, -0.9707786318818, 0.08728790948314859, 0.9899390788670954, -0.24742719816562286, -2.554108996791602, -1.0735380583870966, 0.9365997277574506, 0.6726806077583201, -0.42456655886594297, 0.4638742822784071, 0.6681420220453186, 1.741977914565403, 0.13539205582445996, 0.816441281457936, -0.04124802392092348, 0.5438523089931144, 0.730449326204888, 0.7337174828950763, 0.6428683482243686, 2.2855836645896486, -0.9455785148208502, 1.2662355089187594, -1.2606295469062176, 0.044517889854803434, -0.550810023238327, 0.4384256122350905, 1.059007087157733, -0.010024555542511224, -0.842027650781586, 1.7697273206674082, -0.9194147662792997, 1.2402419141272627, 2.5803539754068323, 0.05420797345745121, -0.9246926603618787, 0.2133925663436624, -1.2677533910644077, -2.1386037438179875, 0.09326965211201027, -0.16276800207237305, 0.996889310837938, -1.4169109818120214, -0.46543486926605165, -1.618323339488913, 0.32585211754285887, 0.8625967562901881, 0.42854911705696713, 0.06292105782915003, 1.6719154023484266, -0.6847668957808913, -0.5813158567250865, -0.6117078547476199, 0.525808946813378, -1.3937897809533786, 0.003224116022185249, 1.5800214788876483, 0.18201403158417145, 0.9193497781198527, 0.17015710865343206, -0.509111958076413, -1.1305913372626004, 0.3159721463455379, -0.20212935599914186, -0.6191770671226716, 0.1023978026204467, -0.2793223387467695, -2.030375164333461, 0.17924176739795936, 0.7969585988094879, -0.3914716481319657, -0.9196650276601146, 0.059335634282973636, 0.6034015166572764, -1.1044529879550038, 0.19351763523157062, -0.4584579006463061, -1.2579633157964374, 0.3618256410182655, 0.8871739831600269, 1.2245968261971563, -1.1847368031401382, 0.901463222102555, 0.4880223993813068, -1.6605525460339752, 0.5839113396066095, 1.1209417021508274, 0.1420945670626942, -0.008408929392498104, -1.7941467036802263, -0.8397491679760605, 0.17862444617718046, 0.4521155170720345, 0.11854052497497759, -1.076666480346781, -0.4587540412962266, -1.0912765679052183, -0.13143457574745568, -0.1906663019421767, 1.2942423385042972, -0.8271619421082275, 0.46791056768371403], [0.20363540506665131, 0.9712861224473336, -0.9304390063637168, -0.4120584334037949, 0.7246863643216253, -1.2117058327801902, 1.8707936682933413, -0.5240299015179524, -0.842780015628513, -1.238723301167188, 0.5193394591368894, 1.2747112000932148, -0.271194895160276, -0.6320203805490171, -1.5742098137392462, 1.1239181796152247, 0.5835899785862368, 0.42207036597738673, 1.758756371933294, 1.059618263143617, 0.2960919909604085, 0.8363060449096553, 1.3512134729085006, 0.2162396079600159, -0.8873343889495624, -0.6784552266133762, 0.8689219270311199, 1.145735937176617, -0.3844266880165843, -0.5543618224111865, -0.1255620779303573, -0.37153264431678673, -0.2406090087588659, 0.06557509606381814, 1.4790510528312955, -0.520543414460556, 0.6036140151053814, -0.32191350450966055, 0.2636256048182504, 0.5346168259219989, -2.788081976504596, 0.8770234847251343, 0.6003982873586896, 1.1389207240465242, 0.6324422744572014, -0.09535541614043051, 0.8035025538778962, 0.7911829148622778, -0.7366232176192935, 1.8854588532743477, -1.3740256601077983, -0.1311150631573406, 0.5533809688667043, 2.0584434138560637, 0.7423181165785532, -0.33375089547924625, -1.1356411937467, -0.6472382744776333, 0.802185826597299, -0.06797877015867784, 1.4483305199166594, -0.4760246967192308, 0.3293581343562456, 1.6066593024325213, 0.7289385716647395, 1.4956922796471852, -1.887875578704658, -1.3312910625523504, -0.3690294174078839, 1.1940569078267076, -0.6012597509155289, -0.6902932709224163, 0.6279775414888807, 0.16756797909582638, 0.0970974000180904, 0.23473731847590834, 0.3074503185135157, -0.71887647928809, -1.8084263752696979, 0.004801234074225362, 1.8318348747978856, -0.4069113360896725, -0.22815486346531605, -0.5135171563720585, 0.6027701396555187, -0.0586467616073915, -1.3002044506106427, -0.1269110442631719, 1.0897595134663691, 1.0289782834492414, -0.666086150459422, 0.45951683944641486, 1.9170032500218728, -1.527057895528808, 0.5754879155976311, 0.013645468406065947, -2.0414829399746837, -0.5298187860882488, 0.38285962245523875, -0.18263631442089515, 2.2094858033708316, -0.8693346603911565, -0.2385301850236602, -0.8193641166207738, 1.1623563739833978, -1.3622452749296285, -0.13034160324093014, 0.6249730690553749, -0.8394074387072495, -0.31697319727582957, -0.527698254529285, -0.06367072509877598, 0.970938835668941, -0.34577917689478943, -1.2841618427097783, -0.04866453573857591, 0.42427750044743323, 0.796841656653139, 0.8072925004947691, -0.36618873394094736, 0.32486548704306484, -0.26293148108749503, 0.4436018710233543, 0.2600956579819916, -1.4630275083756452, 0.5461507446316571, 0.26189131929937254, 0.44506595318382763], [0.06711544681843191, 0.7257977237429803, 0.6744050920328131, 0.009113888023966468, -0.1411787004926639, 1.5157543077200095, -1.1551007598316605, 0.10796825613143213, 0.9719008854895953, -0.11896184440573157, 1.0711533642019135, 1.1274497135330244, 0.7679744680772729, -0.05736508605513125, 1.4294706176452954, -0.16421184085230675, -1.087574246663742, 0.6721159857164658, -0.523216989133548, 0.8375487242140226, -0.26252559827165906, 1.0547516444882523, -0.2696748844294437, -0.010425945176159291, 1.4093493942742255, 0.38391700755990726, -0.37518851701262795, 0.7383105335889115, -0.5257528666407755, -0.9342649303546462, 0.9262108624436833, -0.7739967084255327, -1.0374825633231177, 0.3771001598044807, 0.31547430514318586, 0.22649767680739674, -0.7647619566120019, -0.28378025801179185, 0.5632814554712275, -0.37711872785669515, 0.7987990874943497, 0.25371127641151586, 0.8347351710493978, -1.5583168645716983, -1.3823203444219778, -0.6337104609204758, 0.16354608216089167, -0.1652796026719936, -0.40746612115362446, -0.10374990853940222, 1.551452453446446, -0.09461598082277164, -1.4122305316508943, 0.34755810300169454, -0.8870444132287807, 0.2314240163960522, -0.4140555748168942, -0.178977074834338, 0.5964179444172253, -0.779950859553552, -1.2086411917821416, 0.8668270221709871, 1.275330434591388, -0.04242220556574625, -0.27366382370679476, 0.004956886398637734, -0.6432911200717832, -0.6054120830771201, -0.8615102804396166, -1.6969369397184095, -0.1709038387537567, -0.25993292158167014, -0.205971773956613, -0.0887578394139852, -1.0348344443334125, 1.3601980323353684, 0.289799606589301, -2.3776430826807013, -0.028466343865072415, -0.8432134272267517, -0.27288988484478194, -0.19661327835009737, -2.3214141849787993, 1.1569426743273683, 0.8997088590797239, 0.8354623669064637, -1.1927823235215642, -1.6345127499453203, 1.7964952667274243, 1.0032813325911973, 0.21297927750022247, -0.2781206478226386, -1.422795214028175, -1.2030727793534723, -0.25146274856136164, 1.2169834342590993, 0.060718505356232154, 0.023284624465738275, -0.10385690230303364, -0.8246786009390675, 0.6859372449656863, -0.5509332348384214, -0.993614401995689, -0.0874928855526869, -0.21847352472528941, 0.01725272354997225, -0.6218999114141102, 1.7523299318739847, 0.35358306039577914, 1.2449092105916792, 0.7944822430148976, -1.4839018048723134, 0.19409920818177812, -0.452677329706369, 1.1399707844320586, 1.397719413444456, 1.191218006033693, -0.5328917324887779, 0.29606033104537594, 1.4272568630280928, -1.917358952822681, -2.279993792657319, -0.9737560389437553, 1.4870143445505786, -0.0012641725465816736, -0.46472289137806416, 0.5106750777398766, 0.651655327546269], [1.1822297378955, 0.706799658831551, -0.011928615667811495, 0.594528703556771, -1.0052009363585257, 0.017621771115497547, 0.40173777235949903, 0.08777836414767545, 0.2769657721325035, -0.8907570949904277, 0.3173037103980002, 0.7006435411614704, 0.051585375631379736, -0.7366026194865348, 0.16315566623127672, 1.000241927935819, -0.7424158982336033, -1.0491185290640404, 0.48413388468990265, -0.1217778051328506, -0.05388008690561204, -0.20771539744560014, 0.9031222811593441, 1.9120618969776186, -0.36855210536220995, -1.288029674824302, -0.4333805237452697, -0.8527964303522804, 7.513526950654531e-05, -0.48423509570196005, 1.8609671050202903, -0.6346521960083955, -0.08212757584432133, 1.8576577030964838, 1.22207503772529, -0.5338154859920364, -0.03714616921393716, -0.2640858763882989, 0.2118882498793931, -1.183318348629942, -0.9522233612127933, -0.8480246359992225, -0.9258518012068407, -0.41330963439704527, -1.6317664465947972, -0.05728114033672918, -0.5269350275463524, -0.26179343039492314, 0.6936644792451617, 1.2018616526697206, -0.5401842116414719, 1.1648411090881197, -0.9500949381912657, -0.5625714051972864, 0.8000158115001803, 0.6040625216470386, 1.9247050562362678, 0.5027159630811971, -0.9141588272392939, -0.49523537454352073, -0.10361388906452562, 0.12178591823252705, 0.5809724189255987, 0.5195321219109855, 0.04260226963286339, 0.04038225681237905, -0.4053697353925802, 0.20628115218767262, 0.720411253701348, -1.3110558603820366, -0.9920862334107887, -1.2795747896885663, 0.4528721956599103, 0.6610696553568317, 0.891264405460526, -0.18024853970692345, -1.8145354400839606, 2.4447629543702942, -0.25358844200789493, 1.6481383090792352, -0.2577161312559018, 0.30987719661089824, 1.0487729684889964, 0.4538328185556634, 0.5386026857662218, -0.46070785720505014, 1.0256603433386373, 0.7081903099554717, 0.6488471677387013, -0.9928707038829157, 0.9584573669466829, -0.2671602575484515, -1.37697920759981, 0.029451797933339248, 0.7804273046661064, -0.39169930989137114, -0.46254117975523557, -0.47337132891667066, -1.3241758006478497, -1.3417250759476016, 1.7004867115523892, 1.0369312508858295, -0.055587724723452185, -1.2753224933711762, 1.3807869415248453, 0.5914874578052557, 0.20802199800128446, 0.3726987848947807, 1.1674662160357894, 1.3148157709511497, 0.6827761633390589, 0.5111445661125591, -0.6785455358164313, 0.8060245895655739, 1.082610528158929, -0.983773900697959, 0.0549893794911437, 2.017795767332376, -0.2251656335860779, 1.953979594996018, 1.5792172028005274, 0.47522204921466965, 0.25284330654026604, 0.02881844605771929, 0.42074358613873647, 1.0824588060931672, 2.4783892083795647, 1.524391464506778], [-0.7253951441913614, -0.062496652050610654, -1.301584841577667, 2.425614791338935, 0.6295138505257435, -0.7817091991569897, -0.4011255723686417, -1.3174488767486254, -2.2024566999757695, -0.6906883349193002, -0.4576690167842077, -1.2149321067746517, 0.37046717886458647, -0.8381632622158859, 0.27519843459775767, 1.2404183842138776, -1.4838438886773502, -0.055767093795333775, -0.4651083693440583, 1.348149480082763, 0.6185107219510224, -0.8422384493806497, 1.2441029171348492, -0.23360491760823288, 0.7542322966407237, -0.2654050678927045, 1.4428459369934141, -0.383376191617117, -1.717164970506266, -0.7164269432465069, 0.0461311048301686, -0.8960195314547005, 0.019399944304617545, -0.8711392424250608, 1.4297146979709308, -0.18373583514510392, -0.08561826597453648, -0.8197505853149445, -0.0464198017902532, -2.3332839035461634, 0.32213857280576985, 0.5465194469847274, 0.6546145108363467, -0.945845453199643, -0.1773390309748213, -1.3491520861469657, -0.9235440881772439, -0.3267631396712861, 1.4218129126253884, -0.11536965715893306, -0.4623148097601572, -0.20559953250972676, 0.534832277705955, 0.3176848365495493, 0.3250022311154873, -0.9440980696084532, 0.6874245328341985, -1.1534091041568881, -0.6701182658538154, -0.11138592409180842, 0.0856740699088739, 0.5624160191724212, 0.9078474234399999, 2.5097636117795323, 0.9816044386799254, -1.4195141318757003, 0.35956178173950876, -0.2495090752357409, -0.058337228989498044, 1.0927061761085897, -0.3400122721523117, -0.5269352579202838, 0.10412284038416783, 2.4000525309271192, 1.7846095339101353, -0.12322531487821936, 0.2873371419203419, -0.24285632029321666, 0.1708241734567686, -1.3545090170552838, 1.5039096754720167, 1.0663577227855217, -0.5803703446386992, 0.4424051279880682, -0.17949132121521286, 0.9695095690658285, 1.8324195828693681, 0.9922222268615016, -1.0699283580941454, -2.3637740590548457, 1.6870020973161026, 1.3224103712125586, 0.8307465183611731, -0.9090278612726287, 0.23532396826842583, -0.11495983701327996, 0.16647135424614865, -1.7996521393268787, 0.05744324154496473, -0.9846094395331635, 0.6767145958852079, 0.356321970454103, 0.36773726978982096, 0.37935429996666403, -0.8216136640470081, -0.44261991243884824, 0.41330515925684136, -1.0402414561431033, 0.5852026572447383, 0.5493277649597484, 0.951983683990322, -0.5530915538089962, -1.3930725333814993, 0.291278495862404, 0.5430733645340922, 1.1899390946413364, -0.7439577214637919, -0.8561920904632736, -0.47730621509810695, -0.6666848849117318, -0.493591108068102, -0.708511329145857, 0.05234075990181386, 0.4724643259640763, -0.36819851404505777, 0.8241633065546222, 0.1867361967529839, -1.1122305255275002], [1.647105658675989, 0.2540820201779365, -0.3216446025339703, -1.3872036745457992, 1.1717098562528365, 0.13598718356480444, -0.7208793095060023, -0.20441543884982483, -0.21927823880536224, 1.69450889835374, -0.11828264016286104, -1.2547713061566637, -1.3656785321301372, -0.24022539889729905, 0.4204637280642276, 0.3091996371958293, 0.5742350562140702, -0.8259215945073998, -0.6659109707345883, 0.6980451385140837, -1.0327116849609355, -1.516156156651462, 0.22148765652729213, -1.1654986305873667, -0.2505911067179822, 0.49306180719443243, 0.31456931788731063, 0.8058705219212885, 0.2823502974061128, -1.8018296000183316, 1.1078892724918177, -0.3666351831379414, -1.0464606931756708, -0.08947100107753124, -0.4415617449943192, -0.27097282179248905, 0.4045543769966055, 0.7246517278029518, 0.10889713964826303, 0.14429177225417997, -0.566530822758243, -1.8471371925604474, 0.20134000896661783, -0.26182014156867167, 0.8553391054143918, -0.2660418975371112, -1.0622563019604627, -0.8667491558082416, 0.27326792023296026, 0.40052313665985606, 0.1953133374328696, -0.29449868982878274, -0.2451954513275023, -0.8146229311666066, 0.2918200774302392, 0.6977779399098285, -0.30206920865681186, -1.5011861869768963, -0.2382551670143121, -0.003827007139169766, 0.7505198653491323, 0.08989865383280644, -1.8133286270261402, -1.418917746827091, 1.338335549149012, -0.15690827663653256, -1.4811663696290212, -0.27083737487873133, 1.1029693969236134, -2.9956519208702037, 0.4583674578833865, -0.11853840185920606, 1.2020929054163074, 0.2771332385625069, -2.752226674029329, 1.4257693008428256, 2.468113062508804, 1.182578116539942, 0.12805191932856033, -0.11021293806610491, -0.08957161012039555, 0.6882725006808886, 0.8095982661013194, -0.7628515064603227, -1.5233151797682256, 0.7643578351065622, -0.2053948091614125, -0.7811392976913495, 1.0295993475680834, 0.697293051251668, -0.7555257580145749, -0.48401452652232063, -1.6240560387861958, 0.76269937781112, -1.0921570634888038, -0.51476428790059, 0.8966572326618742, 0.9056857362123351, -0.7766707588571229, -0.8108235826898489, -0.08896420989390705, 0.14926335409880354, -0.42296695807357465, 2.2938673828704044, -0.11703877660721325, 0.13736744470702342, 0.20247970297304138, -0.3393795734690103, 0.7670574119234467, -0.7945492043598698, 0.4994873025151842, -0.4617236443305211, 0.6023829738142678, -1.1407714633433925, 1.0734547531340104, -1.0506476574236112, -0.6014278879143344, -1.5212163219115216, -1.5468226588479732, -1.4303103571503004, 0.23675555364865897, -1.3944236239410481, 0.6205074241714972, -1.490315463646523, 0.27547340191765557, -1.476949164767905, -0.1510955965032025, 0.8701270615405745], [1.215430646968717, -1.435370580729003, -0.6021757035705732, -0.27972472949546495, -0.3595762728794135, -0.5234521205772473, 2.3547807291671403, 0.40795369516564184, 0.8544715275431677, 0.40555075951520275, -1.0678191518947067, -0.08543384723953001, -1.1539808632532267, -0.854993890768797, -1.2040299836032713, 1.749745218853742, -1.2073332847472371, 0.5321465273733493, -1.5807481759551474, 0.19473994377415327, 0.34044815366674813, -0.9026238327189842, -0.8866597222819375, 1.1120354875328438, 0.04195886855056699, 0.946743526698535, -1.0112475899642728, 0.6616961477978904, -0.5282804198616233, -1.2967648007577175, -0.5076665548245645, -0.06879651710941677, 0.0499620216884265, 1.0010711076173138, -0.018291397063146028, 0.018231597304761683, -0.6013908029178466, 0.3797394531829022, -0.46979577994597127, -0.31863040889849825, 1.0174381504444092, 1.4691461031725543, 0.11324427316930066, -0.6287639287373319, 0.23779774730539155, 2.180680489930138, -0.8509295275230014, -0.41643981981223016, -0.841613173822444, 2.976764416827318, 1.6223525708573354, 0.37539031213353635, -1.5527543522127791, -0.056505525313072257, -0.5685961474852342, 0.6593814768653635, 1.5157625411680977, -1.23614786443063, 0.8689178241391855, 1.3679212087150494, 1.0810110754048774, -0.6264823203183104, 2.021612384071752, 1.0947043841207797, -1.6800219302408144, -1.1300230611226267, 0.7854576190676712, 1.132698855357928, 0.3149648328945652, -0.6554318298215449, 0.8411982146176156, -0.023931200259273103, 0.09142972363694253, 0.9576832040813633, -0.051411785388798294, -0.9946299031154563, -0.9829569082056298, 0.7661385957955713, 0.5151534643115308, -0.8309112921339314, 1.072239734209197, -0.049543773956041294, -0.8719455859767536, 0.7292132313049401, 1.8079848468770618, 0.4406617302987321, 0.6323296979127485, 1.9969371978818138, -1.0184219022126162, 0.24464488152120817, 0.020974047412615212, 1.1265662006385257, -0.5308312485453949, -2.0825101743532923, 0.8042558219516327, 0.23375216658586523, 1.1516660274880113, -1.1128373754938423, 0.6542258134329747, 0.7908943273246049, 0.5586903119040912, 0.2637166780343021, 0.03045592053790509, -1.129198617614389, -1.637915547675557, -0.5474025830031493, 0.2105184040862931, -1.705625626501654, 1.8485100972574469, 0.7170102998759935, 0.3797531505687495, 0.3661759364962678, -1.0509842342568956, -0.9784922202438541, 1.0446678014227537, 0.12222585815398493, 1.023211150184598, -0.3831620721896557, 0.9456363619524883, 1.2442801101812127, -0.9009480682439055, 0.9699841529733247, -2.0741607595811105, 1.1310791289611466, -0.8303575924235661, 1.3956453908783018, 1.0574499899772036, 0.9617219116788871], [-1.1148752983250463, 0.3565679565257801, -1.1316009444318507, 1.9954941446703982, -0.2908795358542936, -0.3330933687786021, -0.07351120430251588, -0.16330587654103806, -0.2821295019800152, 1.2437689633460314, 0.6751490208326977, -0.25029965404957405, 0.8426096776339675, 1.3800288311430413, -0.8162210469407997, 0.02004208913905969, 0.5439389392682497, 1.389708795658296, -1.4811837917309774, -0.21236614060541514, 0.7462137092623121, 0.8678346871096171, 0.2370390498753769, 1.1133051852014058, 1.0039555613954303, -1.5976162305422072, 0.3716503098708247, 1.0977352444003596, 0.5440314481695725, -1.0392088419271373, 0.07446427822900048, -0.7920256177669724, 1.6771538862919617, -2.0837710261696505, 1.7631285105137073, -2.7883355968027255, 1.3658948073825525, -1.2905054728073562, -0.7562986172580642, 1.6012203810410355, 0.22172774689449637, 0.25993715049675264, 0.2760383294436298, -0.48837217696515334, -0.7658719739365667, 0.7558369352232803, -1.170968632340367, 1.239358910082633, 1.5674496400771463, -0.21620723558509686, 0.543543495276111, -0.5907686445838745, -1.1110211971934338, 0.7704008286168071, 0.940066549958228, -1.4161714458573855, 0.6741999795351917, 0.9560667861027494, -0.7646141574211004, -0.5794051277343292, 0.6878432789989616, 0.8882546353332234, -0.5277368405004756, -0.48782254687637405, 0.534138229215013, 0.6665688623257808, -1.2686135652621973, 0.6204501023762727, -0.8214727814741629, -0.26945413304371474, -0.11102011623720824, 0.7501734609859579, 0.41504125860333485, -1.187991897485385, 0.030291425038695943, 2.1987757230835805, -0.9276346127640847, 1.1346300430680745, -2.1620068180415446, 0.3349963957552323, -0.003048985386678721, -0.14762504789459574, -1.4353111589839043, -0.9300429369775919, -2.302697895305296, -0.6368058333955134, -0.185600748045672, -0.09957459769083943, -0.36308762812997053, 1.2176914901593574, -0.20532704276258898, -0.0010066234149791959, 1.3272091042023213, -1.177739955042221, 0.14631566236680169, -0.8088501321057383, -1.236904595119792, -0.3229720897555767, 1.1582025833119234, 1.3109401311058853, -0.23103676449213081, -0.5317732003597331, -0.5841354401762595, 0.08005163610118592, 0.09238019002949972, -0.5508723405597841, 0.08705486095333492, -1.7116085978179891, -0.6603965070068718, 1.2025751705871, -0.6106961145211008, 0.7552650529126346, -1.268090611964932, 1.3264963139404202, 1.0330817800542522, 0.6833415208734016, 0.46204150577419273, -0.03756357788195292, -1.2601645979196994, -1.6528044993834203, 0.08593370701036417, -0.30094439920597493, -1.0395111813378912, 0.6298833665964125, -1.2334787927474617, 0.21387069380368273, 0.6951506571667715, -0.4859851376213263], [-1.5682114563300606, 1.065819354859702, 0.8107087145454409, -0.8310703126683014, 1.4146399971748223, -2.374855137244603, 1.5373151190006538, -0.8585733269329436, 0.33837422211480517, 0.5392067648380288, 0.2942761557801349, -0.797927172836283, 0.036494571518157645, 0.22449174573872865, 0.23179287078195093, -1.254304877026301, -0.8728163779514145, -0.4208395808404595, 1.670203178919953, 2.1018215483474676, -0.06286998830402465, 0.35992266198564776, -0.1404623689493867, -0.7406938090645203, 1.0063178166028603, 0.875728190233275, -0.44655645499921676, -0.13993175419776002, -0.34283209133192427, 1.2115642859818745, 1.4678128974008704, -1.0132812597093102, -0.697452232752593, 1.1215758393297257, -0.34677582670928536, 1.992560407249132, -0.16939001269937437, 0.023999830127212553, 1.6079599258640798, 0.09831789367319856, 0.9333954990079774, -0.963702967497906, -0.007528949678344483, 0.5287187246814545, 0.3867478651412109, 1.0621912107835616, -0.05564802073640748, 0.3693804214072281, 1.1520966701897628, 0.2796936296045154, -1.0845511626511806, -0.16332282194091427, -1.5054387136263492, -0.4271070924169418, 0.3417576664387551, 0.010326727025298093, 2.0810375160210257, 1.9443658147344565, -0.18569924800617127, 0.7907848770443875, -1.085341396948673, -0.8321821337872022, -1.0912691181727048, 0.8268928182971829, 0.5813352875818699, 0.7135093860176417, -0.47049971897793497, -0.2965823199767335, -0.6901965099639148, 0.6636234479764955, 0.22467770825061473, 0.3751322408481857, -1.5396057855961338, -0.551130974157134, -0.5950887377908041, -0.7572881552047539, 0.6706644338805078, -1.6293619652383302, -1.380474026210879, 0.74237785907756, -0.4119205599566128, -2.0437486857973814, 0.878759084525758, -1.7708782777774663, 0.7141880497028226, -1.7633898697852943, -1.6642600453415095, -0.9503640890796758, -1.1330272464721038, 1.493155467954064, 0.47388149612734604, -1.4608707134871604, 0.37455325397229794, 0.47452350627937245, -1.5040392649149863, -1.2044883634244705, -0.4808178931593696, -0.05044993720893764, -0.6003454278486371, 0.917712399483265, 0.26047245008520636, -1.2721536316784718, 0.918852993984723, 1.3456375248120793, 0.9114020587587879, 1.60234919802035, -0.6855129047264441, -1.7943750268191117, -1.2639738315997409, 0.012775285504542185, -0.3527946787462539, -1.9811029938059328, -1.5994890500742525, 0.9014137884059353, 0.3036617778902222, 0.7331895133473172, 0.8201733967418414, -0.6935843398465097, 0.44149476882986277, -1.0774532983575775, -0.0560958193831941, -0.22521269315693312, -0.9253744360718975, -0.09151910966109675, -1.9363505704309394, 2.1052525303608864, -1.669113843294628, 0.3234837434906652], [0.5710019166633972, -0.11531785574327047, -2.305620660542926, 2.4250205162949374, -0.17732594463803922, 1.6939001615611349, -1.008602766300935, 1.2717693970076602, 0.8120571255129881, 0.20238546610156213, -2.1967468614669134, 1.4315155652589022, 1.12111658540505, -0.7356549790264891, 0.6193133838476038, 0.34078580847407824, -1.5422692253685686, 0.0068027788691819415, 2.4069736052705926, -2.2449097783785414, -0.2451940941607308, -0.027050563452933937, 0.433381728673092, 1.7802283110251038, -1.291779123611792, -0.9420855764133017, -0.567802072042108, -0.520767845549542, -2.2831558826130127, -0.6243117563621401, -0.831179599606764, 0.1555242339875873, -0.29931309229849995, -0.3349599385426647, -1.2941583776075802, -1.7041543352653616, -1.2209804687791492, -1.0052438403415411, -0.8916602077621154, -0.2954147854381628, -0.9940368055274547, -0.46815915722267054, 0.36187539733682744, 1.510757059582353, 0.7431908078544888, -0.7330012922284064, -1.1932381911069558, 0.46767617994530164, -0.1536338042166445, -0.14129521278901594, 0.17253653648242692, -2.649185937898352, 0.48148639427220247, -0.5682676293780444, 0.36817469528519964, -0.27419760239827945, -0.5531257194789115, -0.7995621521941038, 0.3174313965514652, 0.6755632855064755, -0.2750187911311593, -0.7239454936125419, 0.3932906273781582, 2.010954611619193, -1.0185928844621255, -0.247416002184342, 1.0463521979136978, 1.2624289548909082, 1.8453172091554606, 1.0285565771017433, 0.6732619732896451, -0.29679595323676705, 0.21580066944051923, -1.9440762531554014, -0.40528412870382924, 1.2404685613289148, 0.9578732838402374, 0.971757670590387, -0.31710156473842294, -0.10350768991143998, 1.3287021387553832, 0.20670014637621004, 1.1175553687905788, 0.11507658520609479, 1.1569893299807896, 0.6344306765413759, 0.8076898517168388, 0.11334667704207306, -0.28368828813234237, 1.5951927870764546, -0.6221468062649882, -1.4706637057023857, 0.3959264632533353, -0.8264149122911932, -0.5533215040528265, 0.061216793999028504, -0.267206214918936, -0.28743006138095034, 0.20331650253376554, -0.8802089615768515, 1.4235653407379705, 0.8551948950274756, -1.8779974049197363, -0.47485121771244526, -0.8925710729456381, 0.8137125312392662, -0.08869203342467867, 1.6959702952066387, 0.46235544504891196, -0.5621918480788849, 1.2786468491833458, 0.6240757586495385, -1.2631674490443423, -1.240618126990125, 1.017284425929899, 0.5072660791468958, -0.20147917113716504, 0.3935943980171802, 0.21735853557471468, -1.0720509587758975, -0.690553347649065, 1.2916532356012984, -0.5934426374006843, -0.9370462186505578, -1.2772429718106157, 0.06583916610405724, -0.488440317646345, -1.3787789223949498], [-0.7481100243859534, 0.9299771024314013, -1.0712416187206237, 1.3677723701956903, -2.1954209965376577, 0.1969416065230512, -0.09986629252349988, -0.05296716215460691, -0.3990441629835724, -1.3639240307368254, 1.017919320745971, -0.7453071017639958, 1.2444617220795045, 0.1351727315686039, 0.468869480567264, 0.6929755361935438, 0.6176935474747808, -0.9413093581550158, 0.53058587630432, 2.0540920074298543, 0.7512244198037255, -0.5007091734842269, 0.08761067286553038, -0.9940240037740832, 0.24462593164160215, 0.555090572881948, -0.3337815265661127, -0.2003907243724051, -1.1669212748329987, -0.6415282837905355, 0.5588545759656852, 0.3768529600430952, 1.040541253327002, 0.5671561539593252, -0.5921277456013883, -0.25772570054343785, 0.7119703121108198, 0.48317294493825813, 0.5287065368606944, 0.03941203117263149, 2.4757948261545555, 0.7473748425253237, -0.6186274309299274, 1.7999856154336957, 0.009824001604883439, 0.6593935032947168, -0.5840546262201357, -0.38414068944000807, 0.41520909196454536, -0.6805300024678558, 0.25955121770350387, -1.9110511317981966, 1.1765659393074828, -1.0164599545336745, 1.2754467204138265, 0.07787688228585785, 0.18171915800096916, 2.24018584055332, -0.3213605118416993, 2.565582190076055, -0.34924479172596323, -0.5951827576170645, 0.4097142845273656, 1.6086423179345775, 0.5516150559219367, -0.06260962218497051, -0.10911774846822507, -0.2624387187728913, -1.3720220517021142, -0.8602458581139939, -0.7206746723526275, 0.08289847143926429, 0.9165817765971853, -0.29270226819564193, -0.4561134037071965, 0.6121130218263962, 0.8631402384216155, 0.7800520381730854, -1.2209169594397078, -0.6883011642351667, -0.5459190857336266, -0.13413874852431767, 0.6777968613455083, -0.19258265413234218, 1.0527472943028136, 1.0675547450389526, 0.8837914687498806, 0.045308172429877364, -0.17240208057220877, 1.348479532714905, -1.5811147776076444, -1.4555391135442792, -2.9444498609882364, -0.37113370122215533, -0.9599354342915023, 0.2672087910343013, -1.1523589787095363, 1.0473424500781412, 0.08239410367318438, 0.46848535865732543, -1.0121179794002564, -0.061279457540131206, 0.8898250051472834, 0.03096272261026797, 0.052389171952695095, 1.5162756073003736, 0.27003319044791557, 0.4578133757788384, 0.7279350055345888, 0.40780245712092944, -1.286814190440297, -1.2996381797346175, 0.09955032745501982, 0.3188951075337303, -1.6690865194853095, -0.7540775017497554, 0.1271360139680931, 1.2452983851627901, 0.7612008903063697, -0.45707029024258505, 1.1185895908206167, 0.22494123446362183, -0.15975230504097254, 0.6619241004788669, 0.002223690800487959, 2.035421258077749, -0.5145929086235098, 0.045310120647969555], [0.13057980820079476, -0.3980698236721182, 1.1256532303995408, -0.4254991755684883, 0.032029014694508216, 1.5842530964010038, -0.12508402887352865, -0.049230766186930994, -0.4765957335414633, -2.188690213022948, -0.5512764015764218, 1.4740947234134214, 0.4671204105468313, 0.8424129852146066, -1.3374712901780523, -1.5628409373728902, -0.006095171695282404, 0.25112329729039345, 1.3675906050274076, 1.3897627590758497, -0.49946703039738755, 0.3416327533899694, -1.033036847603093, 0.7896973394943444, 0.4821498034439208, 0.09948397975093519, -2.047481111234776, 0.31176511766494364, 0.3924480987725473, 1.214805329152873, -0.2544018556638198, 0.7859122736788527, 0.05951294063832332, 0.645759436271567, 0.5771627187356186, -1.26081785236112, 1.7506905565395734, -2.568819740253135, 1.0752578261891137, -0.6602497973926701, 0.8918235926180079, -0.10486933015644748, -0.7183698725978985, 0.3851406230112086, -0.3024083696642733, -2.150590004129721, 0.3783820187664353, 1.313519236450321, 1.385028199533497, -1.7529966612033843, -0.5249832289963734, 2.703039195984359, 1.8638496307945414, -0.2539613902254452, 0.610104487717607, 0.5784415155755042, 0.5331977844495388, -1.6778709640952278, 0.9290762214850145, -0.36997469218258927, 0.8514615108932415, 1.7138543756213396, 0.6848154361921743, 0.4973998029072107, -0.8046198466369495, 0.03796435906428291, -0.2338290789364519, -0.8586409561407259, 0.5040983556781061, 0.09509227220673631, -0.9063077672848106, -0.17769939667981635, -0.3945771858560799, -0.8602079414593571, -0.5018306850197898, 0.2781660140104896, -0.47885040796030237, 0.3275783958268777, -1.0155764995257497, 1.5186419510875802, -0.5362197204536937, -0.08238372086174149, -0.27117610856214347, 0.5794614854537649, -0.5737421124179054, 0.6374144678720418, -1.416568347386775, 1.3091831015350963, 2.903669544371728, -0.32820971908765634, -1.7133820588642377, 1.5223337594063897, 0.3388602403554022, 0.21874910824013177, 0.294939499027804, -0.3583318834038597, -0.35355423500268285, 0.4165555219053716, -1.2295760653651353, -0.13339092688075788, 1.3488951142431898, 0.7068509205577764, 0.508857648552287, 0.3268123772934757, -0.6970235558282325, -0.4955328880802421, -0.33555018075834286, 1.2931965023792233, -0.13721889687276836, 1.1806849109730433, -0.44216393349561633, 0.03994591545492454, 1.5820614359687761, 1.2885362951128365, -0.6276424449297733, -0.7345204894738427, 2.001667723522388, 0.47819294203864654, -2.5757348719485313, -0.2839569024337424, 1.3432791303620595, -0.5467735934777888, 0.2245713252674683, -0.18457673887782686, 0.4833917646809238, 0.9053154590189277, -0.4355201061080809, 1.6099686012365613], [-1.2498385766769218, -1.2630290814761738, -2.291682547158546, 0.08589022689600134, 1.2384587863656793, -2.542805476743879, -0.7015754536512765, -2.339710205244393, -0.3586873442186116, -0.24519399175528844, -0.48053038131443376, -0.8845770763748644, 0.12501664589927594, 0.8408764884060748, 0.10267084626369623, -1.615764477717656, -0.8682161471209392, 1.2667157590755698, 1.2286065934242096, -0.3652435667174842, 0.05941253837689272, 0.15098126713527332, 1.6340793152754778, -0.08494257863543157, 1.051681186897389, 1.1172766312889197, -1.3430783345106296, 0.5010700864883708, -0.31993427817632525, -0.10972423249386547, -0.07573625904113533, 0.08107414600541932, 0.6651194407597598, 0.10584043917877284, 0.9073047921659536, 1.6166340604535567, -0.07258130369790504, 0.4298660911112498, 1.4879920206015718, 0.7499106686338944, -2.1664589324591637, 0.18482844457844477, 1.2649536035815572, 0.621268678061139, -0.5416238182771965, 1.1290943926806523, 0.8930266479962583, -0.22275170091411595, 0.1819664479550807, -0.34250875661608443, -0.0596253657496538, -1.6073956638723519, 1.3461521346752239, -1.0161245251044129, -0.5642912817236457, 1.8890887042207238, 0.6390760522569554, 0.5900786440499658, -0.8910524861873046, 0.285467610663204, -0.05710849573157307, -0.6120814018659751, 0.08192100738478733, 1.21108043350202, 1.2677529907756138, 0.6229956648294392, 1.3578974112412485, -0.030977000766517587, -0.0972184775369999, 0.5413128099253002, 1.1750442638919012, 0.5194487839866224, -0.19130774896683414, -0.6420829310897551, 1.5761191534837904, -1.0628270948327132, -0.5508044634885343, -0.4928710609778172, -1.3992355110716468, 0.7705374067973048, 0.022457336352613818, -0.9515502609581877, -0.9172621917817728, 1.4938842344247598, 0.2941602781497422, -0.21606979787460406, 1.3317291544218266, 0.23633887177611645, 1.0195406836771757, -1.2453401568189948, -0.07188554853292234, 0.529930496123327, 0.20651564200650926, -1.1178607288594982, 0.10088057294911469, 1.8962564809801183, -1.3328441970948295, 0.022482149772287637, 1.1214047678138845, -0.033937713366209356, -0.3656905702401577, -0.19834935928812195, -0.796995687843056, 0.6826471951197993, -2.213087798038103, 1.080834816849889, -0.015013474374199738, 1.09205815340555, 1.056290423463245, 0.22375490448233157, 0.32473125418437493, 0.09710562645042652, 0.6410254801643418, -1.0489092259700392, -1.6627900086120717, 1.7741952564103953, 0.6266520137151008, -1.5512561097349709, 0.23202387392726895, 0.6934714547727174, 0.507002609105287, 0.645524351686981, 0.2933703953779055, 0.14857313812230472, 0.7706082308005893, -0.0600852262302023, -0.6670438950017976, 0.5443050248151696], [0.2200741865593119, -1.1270317708410167, -0.6350771341315339, -2.078427760097604, -1.6793737436025524, -0.583156657932352, -1.0504651468454658, 1.0350068418540743, -0.27136933680515113, 0.9920170554157757, 0.24643036537226867, -0.07157743501255333, 0.5526682836231347, 1.1847446360157754, -0.9933586316537854, 0.43523052144957536, -0.4113462005501891, 0.09649669319330526, 2.0442983469506713, 0.5078396692560436, -0.045644300296836374, -0.5728534871569428, -2.164681420698813, -0.4404803345270306, 1.347983346042686, 1.973918740772371, -0.12571968808167808, -0.27338092975780043, -1.2845914628143285, -0.6114554015288649, -0.9351683457467581, 0.04733040965026102, -2.474352906881966, -0.2651215902964163, -1.8961956751297961, -0.557506682140448, -1.294295003957374, 0.06242715410955952, -0.6916525914276035, -0.8660188257794923, -0.9258646133160435, -0.7688573460494653, -1.9329172139099289, -0.6260530580828974, 1.7167832266746348, -0.9661209714104455, 0.5547179462753751, -2.6624242054518628, -0.5780054818329202, 0.44335424673081364, 1.5330267623154072, 1.3932801251616755, 0.45913207646826515, 0.10305892045099205, -0.48480341685503037, 0.9469253831925855, -1.9109318973168634, 0.9687673595347632, -1.27149516881825, 0.20158537323641545, 0.20407275528155222, -0.7277092777114915, 1.026769019306358, 0.6944632000733115, 0.2785107551540907, 0.4982566309284831, 0.7187778840100864, -0.5906919439550153, -1.254977598177492, -1.667076303880385, 1.519238118259477, -0.8151083145057624, 1.523674987114566, -0.6381104035648977, 1.3245491172452646, -1.2353852528447111, -0.74109967544467, -0.15321072888138018, 0.5429458709169425, 0.3149361127667001, -0.1895816946579208, -2.0087399000690187, 0.6375589673955255, 0.5457670342947746, -1.3120154235910186, 0.6838145693732113, -0.17790546946444122, -0.15707199793010565, 0.9711567919639698, 0.28785587488054776, -1.3491134980374202, -0.8677518818327, -0.4257155969193581, -0.7955769188225521, 0.37776470500262416, -0.6933572382509502, 0.4735165394934853, -0.5110640489854206, -0.4571706049634954, -0.5346753999260767, -0.7690782451816672, -0.053347041860701536, 0.5513597235087577, 0.4812333024549651, 1.82244334640807, 1.3487424241091652, -0.46568256540526254, -0.07711013122475574, 1.995346189115042, -1.1739156622920612, 2.0001095586931856, 1.0018098379293436, -0.2260683399914377, -0.07566325281206969, -1.2739741962944402, -0.8639014377757039, 1.6008201650761216, 0.19134789524412493, 0.5267706097566851, 0.7158559911159313, -0.9366598965964928, 0.6374612468511816, -1.140008085582314, -0.5638335161063126, -0.9084073408409696, -1.4470220738250232, -0.04555427533236631, 0.5274153966776434], [-0.5805057256207892, 1.2969636409861969, -1.0180576494643838, 2.472746522229141, -0.22239308859687426, -0.32643084792087257, -2.2041174646505417, -0.1888717687082189, 0.8293608103170405, -0.46850422597927366, -0.677065538423118, 1.761830144730258, -1.5696760084463244, 0.8033632064587697, 0.47561978554626094, 0.4159028414186056, -0.5601426005557308, -1.2036318423003105, 0.38560316647514353, -0.17930490357500534, -0.7787458449292226, -1.1220221072223215, -0.3040370295627357, -0.9433048093111893, 2.0250620855310357, -0.6186135348825986, -1.8737263553772412, -0.8053666256578406, -1.8801075629236472, 0.13700636514914055, -0.6059760625899074, -0.4232981947742763, 0.5889194614729663, 0.7524830507517989, -0.26480485250837804, 0.5886018362143159, -0.06417450494050887, -1.7583210436197467, 0.3337503204018407, 0.706085668739256, 0.46934010957981953, -0.25137802533017933, 1.160537726183074, -0.961419470109426, 0.8605548254460282, 1.8056389411507596, 1.6654448860265623, 0.7881607444891331, 0.022900617319208002, -0.537316867260296, 0.12840878090830463, 1.3698237705395768, -1.4518678967127936, -1.9551905504211262, -1.3552000753666806, 0.5158114448491494, -0.6053134646086414, 1.2118739581423081, -0.46714307829865, 1.0291555477020575, -0.2961378285011162, 0.1603153404813079, 1.6809621111226118, 0.5643738067481611, -0.8874682915970331, 0.9094647197794131, -0.024026024637959643, -0.39217412068391183, 0.12795385284505945, 1.2937073234919623, 0.9325389243643118, -2.1125946984976607, 1.3649270026047031, 0.05274490772375598, 0.6132377649095695, -0.9218680314967127, -0.04270536502110335, 0.06409629432877434, -0.17811295365544813, -1.312172142311917, 1.2130831765544536, -0.32304042789954346, 0.9064682098381818, 0.6624574857723946, 0.8678356885004122, -1.4284372584104759, -0.22263164372774571, 1.5265129075680586, -2.648543118039158, 0.390488843232912, -0.5669347653514751, 0.7985998133303303, 0.8310992392014932, 0.06946947948283894, -0.662513225381923, 1.7503151042918308, -0.5075527622760864, 0.7491044927834856, -0.3560667029729582, 1.1327560332510926, -0.03730923247644124, 1.028137237163717, 0.2953971008235777, -1.0087103487306346, -0.29652254719108034, 0.546191408533027, -0.686829248522678, -0.09345907386132743, -0.6251670444302774, 0.04738096229073579, -0.16820553294007848, -1.2110777291053836, -0.970734913353502, 0.3579175415176016, -0.3710042347346582, 0.1530778526808929, 1.294058811112901, 0.05878231165578776, -2.485676517739042, 0.7690594579034973, -1.0344608901740595, 1.3642750644781185, 0.3356245416606078, 1.2802001429564027, -0.019184612993909445, 0.3316741389696239, 0.6994148822710122, 0.33440968008793426], [1.545069731714905, -1.5860038967347385, 0.7045408650375085, 1.7601108096718046, 2.110047448750732, -0.7484598817116142, -1.671487064476333, -0.6563180633951998, 0.4907931212156934, -0.5865513618926999, -0.7810683605617348, -0.2749304581695037, 1.499623980939193, 0.7714411361553698, -2.1252471620038884, -1.126785829101879, -1.250623449902585, 0.8457380160780817, -1.3704604760936885, -0.38536260409603984, 1.2621746070379012, 1.0835518867125715, -0.08602427611757318, -0.8672111242492994, 0.3951740703899306, -1.3237890446839322, -0.36385722086422667, -1.5458327708182351, -1.211260135447289, -1.0708987173479882, 0.36741582776721954, -0.7262855746556091, 0.24882279932410328, -1.4275879266447498, 0.1016370615150202, 0.6113583303114107, -0.8296312093005259, 1.3311618143357788, -0.5827143438011465, 0.08254590434139229, -0.11592422493522726, -1.6459846183133842, 0.20150835995504368, -0.21355962530601028, 0.7012034649455229, 0.7598400437346465, -1.194158542654676, 0.5684521176760686, -0.06356081858334933, -1.7067615158713068, 2.2466871429882733, 0.33690795704918586, 0.038788917578163586, -0.46397870849319034, 0.24042662980373938, -0.2682585541868514, -0.12718602586052546, 0.7910822309812597, 0.48667322278875236, -0.3421921409439838, -0.4817495540532058, 0.2585500973859754, 2.957094572609506, 0.073705671723723, 0.6458199112228018, -1.254305243587553, 0.26644725987727347, 0.16367246918861977, 0.07005931938298547, -0.07673761794847199, 0.23375720248308443, 1.59743612757433, 1.2265502100621435, 1.0415603084382437, 2.300858891715312, 0.1711284808360144, 0.14320727802336203, -1.3648619070057733, -0.07050178920970118, 1.2241159494979836, -0.09020789458011365, -0.8610264343181182, -2.9191050159238676, 0.34410669073824257, 0.7547358550162214, -0.6908450385913016, -0.08620621547171989, -0.7881875386576581, 0.5129339209943996, -0.30991567314268564, 1.578160504374259, 0.014917289470468869, -0.7410524334811225, 0.2794681254250532, -0.8392805411146658, 0.8415344836702608, 0.02214059101496423, 1.5144461150285555, 1.0923437730532617, -0.6682638077671745, -0.465619607439013, 0.18044833359388912, 0.22990052678738784, 1.5247692499027319, 0.20287653402988864, -1.419233654564843, 1.0563897052108009, -0.32711731450215176, 2.2346374653735896, -0.9665064359140696, 1.1296010890467616, 0.6965623503363507, -0.5999716462857738, 0.27329638722603744, -0.5746222042467427, 1.700978241826387, -0.7561381058704102, 0.6332461017488674, 0.7024809635578034, 0.5209580536000864, 0.7408497071777619, -0.4360507235719902, -0.3134493082342602, 0.327466146134046, -0.6507561734364534, -0.5437691510198469, 0.003440654486659045, 0.8589633266324016], [-0.42914041452928736, -1.662596795042462, -0.08556695040584945, 2.6871741019711854, -0.8855185089881978, 0.8627896849297476, -0.7125801480790017, 0.6004656253392376, -1.6932353157837772, 0.6672685641748497, 0.05835953166794191, -1.3798021071220565, 0.5303320033138101, -0.38425827786243605, -1.0618662135578778, 1.0280139328043636, -0.9125769402568549, 0.4946144269280547, -0.669441716312387, 0.896726447745189, 0.5639789218352709, -0.6355286540721707, -1.0667485492991913, 0.07864635755141648, -0.2203615635833453, -1.5145751836474808, 0.7990976434921349, -0.18791454710132743, -0.6709384719565061, -1.624804712471029, -1.2351036278822995, 0.04571669853642481, 0.02868268169899334, 1.4231686686960032, -0.6878332822840161, -1.4136639542147653, 2.2144717395275983, 0.7396578247411338, 0.16173775533047008, 1.445040011141597, 1.3021036003697264, -0.3605359470499805, 1.5175272812483118, -1.915462300912527, -1.0790566110147557, -1.8207036505091778, -1.9854257069896244, -0.10244934706876152, -0.9787901506092571, 0.016107494867029178, -0.014858259071685637, -0.07842003108864427, 1.7070338878366917, 0.3302359326105203, 0.7511958954870868, 1.8061655554068359, -0.003080785551425701, 0.7453966520078495, -2.183552064157404, 0.368620099522604, 0.7267579069040344, -0.12851510779719263, 0.5634801752617633, 1.1283135645418387, -1.6260632385629012, 0.9410903941277317, 1.249432255535367, -0.5344814885071332, -1.091200513045346, 0.5857308058667077, 1.5957786569013404, 0.19298483347431805, -0.2900598643549422, -0.20642018320985994, -0.10977516036536164, -0.3033199731784077, -0.3175414966600015, -0.6133606621906726, -2.4928655366656973, -0.1952020263819454, -0.7510745538957446, 0.20688251743275057, 0.05491161486412366, -0.2597889005132853, 0.2385554568327164, -0.5263916691380066, 1.091928525683276, 0.9821759630138048, 2.438001438294672, -0.5181867373371443, -0.2894763255606543, -0.6484982899531866, -0.2276971651560639, -1.0934730800559702, 2.386616816903405, 0.16935610381688312, -1.0078405282985978, 0.6768082181479137, 1.0842475989655234, 0.6614447699453452, 0.7351464833491843, -0.4062681102781454, 0.95904399676968, 0.6488657053087737, -0.5901419947939917, -1.2560455710331628, 0.019213447475383998, -0.15437694929670887, 0.3937617618202222, -0.046656615143882335, 0.9770564232394745, -0.4514718525769913, 0.6908515649611964, -0.620229442955755, 0.6363415758812974, 0.2044499946372899, 0.9637224823459863, 0.7572207866735414, 0.7897382121698118, 0.5485604715035376, -0.4156161662294308, 0.8691621877626585, -2.4326194747065717, 0.13586365641739148, -1.8293084182364432, 0.15709540723221277, 0.3160412858375937, 0.3492703779993762], [-1.691870044067583, -0.849449000671137, -0.9462960370183513, 0.5091501845794537, 0.6745507642684994, 0.6280539824164526, -0.23991294255627438, -1.1695086848905423, 0.21033059821969988, -0.4853650056986612, 0.964860618245266, 0.2750444171694513, -1.5532587625617196, -1.4006810738016209, -1.2773899985932413, -1.2833366457264364, 0.16956549944829394, 0.9819341311433457, -1.8923802449315084, 0.3597116790645866, 0.3263351237612136, 1.3253122068563759, 0.801299220506393, 0.8146268769344781, -0.4157043304593181, -1.1263249325613496, 0.2232739011828204, 1.1045175545107908, 0.9626113848182813, 1.2176501435330351, -0.31885190348855846, -0.0830434758789005, -1.6396259446944235, -0.9330375188620816, 0.17371795250913902, 0.16125700340893598, 1.078617822952933, -0.11737896988800305, 0.43283092909095877, 0.26656705001517583, 0.4392459363812, 1.343552121890716, 0.5489656245947988, -0.7102936611460624, 0.44581404309565204, 0.49315731323535533, 2.1227991423825032, -0.16664673509343875, -0.33388611559595155, 1.4296671883724845, 1.1799981077932236, 0.5866437968557033, 1.4922586301503178, -0.4982923687430729, -0.31663780646245737, -0.7108008121555522, -0.6511037222242575, -0.0369334710538257, -0.4704717130824959, 0.07468636887783066, 2.063675155673444, -0.6741434391405747, 2.2582407572024006, 0.23138553789198743, 0.29023691189523554, -0.3642496693649323, -0.8090720500677802, 0.5936603918246234, -0.5960688470385741, -1.1903273081877144, 1.030319417560708, -0.687432867195549, 0.685450522045972, 0.30240023249975406, -0.18930872118239325, 0.16142717594030126, -0.6261892609705898, -1.7793138107349156, -1.3883214478858852, 0.8734852686234807, 0.7437950865644003, 0.058490634447525315, -1.5212697152828216, 0.4865832300234249, -0.4995217198616691, 1.3813472476456705, 0.7283391015305863, 0.0061224025989066065, -0.638462231989515, 0.5168873824029289, -0.49132833768725515, -1.3547553213031993, -0.8079543310108644, -0.26051229507770246, 0.8896263154112001, -0.3846002465600871, -0.424820320573346, 0.9310720195525288, 0.028978434305819346, 0.25757837117395843, -0.18663798322080846, -0.717254430364044, -0.1896112777408706, 0.5373296451495672, 0.21267257521291663, 0.9495029476512986, -0.02869834349377834, 0.34375237551888965, 1.3854506865420684, 0.1897368638986434, -0.43072480073628766, -0.11522978705040662, 0.6024188821003269, 0.3241198139473852, -0.10344844201493332, -0.4543418478062387, -1.2252208268264504, -0.24695351901646886, 0.5534027066332143, 0.9240672697577308, -1.4370066266209225, -0.4946492521261609, -0.32151283435532746, 1.5759001507996637, 0.8937048516457423, 0.2748631658272926, -0.24433590670511002, -0.025470282319010894], [-0.17973423400899594, 0.19557957076490212, 1.6879614744103975, 0.4858775725727735, 0.6891587347501362, 0.8382960484147962, 0.6418667433354095, -0.9086667253570502, 1.5254599319662794, 0.08680164896607444, -1.398186524252889, 1.1293264509111343, -0.7255327293496938, 1.1241624376930668, 0.576749257269032, -0.6703039955998153, -0.2389566320603947, -1.726787738162571, -2.1145675676678084, 0.32505032713832704, 0.7990121957086204, 0.61477393025065, -0.3872579643899385, -0.9895548605642901, 0.7953019341548301, 1.0327513312310441, 0.09652500909392646, 0.29215580829107, 2.568409984155212, -0.7837266037462961, -1.1562644569780685, 0.30240633062879735, -1.997069049723767, -0.6886930668512707, 1.111357661109394, 1.5575301365220904, -0.5345578028900901, 0.47642774438524427, -1.287147783804282, -0.5141572333519958, 1.8817611841734114, -0.23788685611853638, 1.6723277717542906, -1.1737844681912448, -1.8173720839549627, 0.9751052040959958, -1.3012210309679608, 2.840961438445406, -0.23205429849252365, 0.5584380413411353, 0.7926636027954688, 1.0202316320755784, -0.1509111948734719, 0.4894548013781077, -0.8583363536459562, -1.0174730408040358, -1.301869618268926, 1.062215412035209, -1.2461562223026508, -0.43096023723412874, 1.002784871955467, -1.0519810642742597, -1.4960135564105652, 0.5991075933966914, -0.8287137835242723, -0.6614064080399167, 0.6509002832881763, -0.2456628379296893, 0.050164100622169985, 0.41813470850967094, -0.9927245712183402, 0.050691611502085704, -0.28478585567507225, 0.5021493053437176, -1.3020550885164244, -0.09304428705046142, -0.8333675965870578, -0.8947853676372826, 0.8637978715814456, -0.4625241779926161, -0.34263456225810895, 0.11260007476849686, -2.528933271581103, -0.22978571054105282, -1.5025236535499733, 1.5813833177241738, 1.820119222002217, -1.2363501245959065, 1.310434458486736, -0.09627582864054995, -1.0355588577099368, -0.3890785903870553, 1.6638471929732415, -1.0251430907845904, 0.43432704463749267, 0.44006421193248535, -0.8222875160319916, -0.21516117817433553, -1.3821180109835975, 0.5771598389678032, 0.7244707033227986, -3.1560730783037103, 0.17013650175042666, -1.930122468964549, -0.06854092732319299, -0.5764487954103645, 0.06999508191222763, -0.03627456539836005, 0.9744951153296216, 1.314851970378041, 1.3484220938894254, -0.20793653486533753, -0.34711177990222863, -1.211887857413091, 1.4173861942755854, 0.5032759467482735, 2.1368142485996926, -0.7142504108630334, 0.5155250423244254, 0.8787885364330069, 0.886641482509999, 0.39145135223450045, 0.8327965977958133, -1.8006596139189246, -1.1189921434957637, -1.3425117266693958, -0.8532144657160646, 3.699806936544467], [0.5398354793994905, -0.05833591413469812, 0.2972834680607083, -1.856702954803653, -1.7132815605689282, 0.8801142883309264, -2.395978264921422, 0.07449523616770151, -0.6074392377757312, 0.66475887604138, -1.5926394930612302, -0.549923513052877, 0.6300883603808999, -0.13283801596928174, 0.42785441837559857, 1.505438076559288, 0.18967263025730444, 1.4478172557355804, 0.5784711376556289, 2.0264833884730544, -0.2937878769737627, 0.7162628909611243, -0.16365555526589357, 0.5721852723742705, 0.08139110784919934, -0.10690651154149722, -0.01272338393354463, 0.30321332144008917, 1.5887314456514112, 0.025405980166096635, 0.7408117098531901, 0.46314334267547946, -0.05196626718571204, -1.0549880738940347, -0.09224123248664279, -0.8352838604718358, -0.28991025043926416, 0.9900381630754455, 2.9535854727757527, 0.6121441478902677, -0.5983223231184501, 1.3532159555503456, -1.8191936025761577, -0.2914744372416183, 0.9231645002423454, -1.188377615483922, -0.22199604864116398, -0.6355602896252353, -0.575274199647202, -0.6146914373052771, 1.7594903062657568, 0.17571938408703916, -1.5890446333351624, -1.510400124375167, -0.3310995905930426, 1.5036409272883038, -0.053747300636800485, 0.8652019033514905, -0.5467148579501028, -0.07925173499837344, -0.10508646748570039, -0.4638293314957737, 0.1916229092353196, 1.278290063939721, -0.22753803483066173, 0.6521424436577439, -0.2877104933704374, -1.0157898480049314, 1.1788293681039532, 2.4992102073129, 0.10516483729803555, 0.6567954583590825, 0.29556409999200633, -1.8287676023498334, -1.2305418611125098, -0.08572600872548236, 0.4097513375708954, 1.3658711750441326, 0.6241646161689355, 0.2896119509356746, 0.7125921824104882, 1.829707076949429, 0.492149646870127, 1.4225215356383563, 0.2211324404827796, 0.07979601750902311, 0.2569215064939628, 1.1172853368852498, 1.9233578513281442, 0.02742682043399071, -1.0466297496702903, -1.38263897638827, -1.3167698055394548, -0.030343898331850513, 1.4075422660359522, -0.8112352974299746, 1.1542467109728107, 0.1539948600805831, -0.9862641967124195, -0.7023138559844608, 0.25275134522034354, -1.773515816910694, -1.250802657260607, -0.9031590488454897, 0.8136071255531893, -0.11852893139377202, 0.05254400470248397, 0.8330260523711659, 0.5045676628012037, -0.41149257923846055, 0.05242388753069436, -0.6344862663979195, 0.3663842059683287, -1.0430076558502739, 0.17058908978658094, -0.4530551097363714, 1.3490248649056673, -0.7490217282289201, 1.097285860240664, -1.7586683330579607, 0.040989627742175426, -0.5189082223650479, 0.6813551235137917, 0.1516010323893506, -1.8202342911836553, -0.2052048184633377, 1.6068606062071065, -0.32813504848136954], [0.9792259903071259, -0.35839328517346913, 0.1365975060065504, -0.03328550219577465, -1.0274501405494973, 0.33829468661668677, -2.2967689522622665, -1.0362684226082293, 2.860564203087476, 0.3251097099339288, -1.4686661812573434, 0.07834541873889006, -0.8195993344813192, -0.8215686920386301, -0.6743597332899518, -0.46202899061876235, -0.2958352752650108, -0.6552879213486789, 0.33541997719574346, 2.0013595864940927, 1.0251796902768233, 0.7596927889792642, -0.47921015879478207, 2.234550124478776, -1.4389802047813476, 0.695039738472886, -0.9411222241454292, -2.0575916175693156, 0.2968002856669338, 1.3969826926526998, -0.06014193990717944, -1.4610766911497985, -1.3193413648387322, -0.49620138655851787, 1.5929567192836718, 0.8782791533230808, -0.06005981694901864, -0.49024998468767306, -1.3015795734192157, 0.7785026753262072, 1.1689805442291492, 1.9583227496210804, -0.5941230215274719, -0.9780681570629645, 0.1023657358821941, 1.2568833310548504, -0.07905859478456602, -0.07446646011865649, -0.44852227682339796, -0.7134157820702566, 1.7843604636412704, -0.7396731257748821, 0.39649033560041613, -0.925217090534343, -0.23229023531173607, -1.0094338661608897, -0.20384138080371986, 0.4682542579167139, 1.2414277940269902, -0.12935168368026798, 0.4979675654515455, 0.5111180732799414, 0.12315345114919023, -0.07204998469109668, 0.7573199037999927, -0.6050090992716091, -2.138187321107192, -1.4609533751766448, -0.19326518372232904, 1.3989643280636308, -1.1067251309759754, -1.3960005926185164, -0.5637324964523452, 0.1884210319003423, 1.0005177455563246, -1.5162307342773425, 0.8670201327148599, -2.0199257950852645, -0.9703016490734424, 0.10775444699980564, 1.7513352787998155, -2.1165354238423464, -1.4424182130818723, -0.1364996665505431, 1.4268493718277917, 1.539584518514967, 1.0897557494645589, -0.9685053756828623, 0.8368681797002936, -1.0897640344471127, 0.6912765578961186, -1.3850181200917757, -2.4418709523118434, 1.210405155373486, -1.2417198723912224, 2.708405886133555, 0.481193613820115, 0.6301847187691977, 0.11850020101044959, -0.6818967267512985, 0.0919830347381789, 0.3264711556139185, 0.5525270251369601, 0.7638269406401982, -1.2798004111949015, -0.8305052868822955, -0.06744489214096296,